{"learner":{"attributes":{"scikit_learn":"{\"_estimator_type\": \"classifier\"}"},"feature_names":["N","P","K","temperature","humidity","ph","rainfall"],"feature_types":["int","int","int","float","float","float","float"],"gradient_booster":{"model":{"gbtree_model_param":{"num_parallel_tree":"1","num_trees":"2200"},"iteration_indptr":[0,22,44,66,88,110,132,154,176,198,220,242,264,286,308,330,352,374,396,418,440,462,484,506,528,550,572,594,616,638,660,682,704,726,748,770,792,814,836,858,880,902,924,946,968,990,1012,1034,1056,1078,1100,1122,1144,1166,1188,1210,1232,1254,1276,1298,1320,1342,1364,1386,1408,1430,1452,1474,1496,1518,1540,1562,1584,1606,1628,1650,1672,1694,1716,1738,1760,1782,1804,1826,1848,1870,1892,1914,1936,1958,1980,2002,2024,2046,2068,2090,2112,2134,2156,2178,2200],"tree_info":[0,1,2,3,4,5,6,7,8,9,10,11,12,13,14,15,16,17,18,19,20,21,0,1,2,3,4,5,6,7,8,9,10,11,12,13,14,15,16,17,18,19,20,21,0,1,2,3,4,5,6,7,8,9,10,11,12,13,14,15,16,17,18,19,20,21,0,1,2,3,4,5,6,7,8,9,10,11,12,13,14,15,16,17,18,19,20,21,0,1,2,3,4,5,6,7,8,9,10,11,12,13,14,15,16,17,18,19,20,21,0,1,2,3,4,5,6,7,8,9,10,11,12,13,14,15,16,17,18,19,20,21,0,1,2,3,4,5,6,7,8,9,10,11,12,13,14,15,16,17,18,19,20,21,0,1,2,3,4,5,6,7,8,9,10,11,12,13,14,15,16,17,18,19,20,21,0,1,2,3,4,5,6,7,8,9,10,11,12,13,14,15,16,17,18,19,20,21,0,1,2,3,4,5,6,7,8,9,10,11,12,13,14,15,16,17,18,19,20,21,0,1,2,3,4,5,6,7,8,9,10,11,12,13,14,15,16,17,18,19,20,21,0,1,2,3,4,5,6,7,8,9,10,11,12,13,14,15,16,17,18,19,20,21,0,1,2,3,4,5,6,7,8,9,10,11,12,13,14,15,16,17,18,19,20,21,0,1,2,3,4,5,6,7,8,9,10,11,12,13,14,15,16,17,18,19,20,21,0,1,2,3,4,5,6,7,8,9,10,11,12,13,14,15,16,17,18,19,20,21,0,1,2,3,4,5,6,7,8,9,10,11,12,13,14,15,16,17,18,19,20,21,0,1,2,3,4,5,6,7,8,9,10,11,12,13,14,15,16,17,18,19,20,21,0,1,2,3,4,5,6,7,8,9,10,11,12,13,14,15,16,17,18,19,20,21,0,1,2,3,4,5,6,7,8,9,10,11,12,13,14,15,16,17,18,19,20,21,0,1,2,3,4,5,6,7,8,9,10,11,12,13,14,15,16,17,18,19,20,21,0,1,2,3,4,5,6,7,8,9,10,11,12,13,14,15,16,17,18,19,20,21,0,1,2,3,4,5,6,7,8,9,10,11,12,13,14,15,16,17,18,19,20,21,0,1,2,3,4,5,6,7,8,9,10,11,12,13,14,15,16,17,18,19,20,21,0,1,2,3,4,5,6,7,8,9,10,11,12,13,14,15,16,17,18,19,20,21,0,1,2,3,4,5,6,7,8,9,10,11,12,13,14,15,16,17,18,19,20,21,0,1,2,3,4,5,6,7,8,9,10,11,12,13,14,15,16,17,18,19,20,21,0,1,2,3,4,5,6,7,8,9,10,11,12,13,14,15,16,17,18,19,20,21,0,1,2,3,4,5,6,7,8,9,10,11,12,13,14,15,16,17,18,19,20,21,0,1,2,3,4,5,6,7,8,9,10,11,12,13,14,15,16,17,18,19,20,21,0,1,2,3,4,5,6,7,8,9,10,11,12,13,14,15,16,17,18,19,20,21,0,1,2,3,4,5,6,7,8,9,10,11,12,13,14,15,16,17,18,19,20,21,0,1,2,3,4,5,6,7,8,9,10,11,12,13,14,15,16,17,18,19,20,21,0,1,2,3,4,5,6,7,8,9,10,11,12,13,14,15,16,17,18,19,20,21,0,1,2,3,4,5,6,7,8,9,10,11,12,13,14,15,16,17,18,19,20,21,0,1,2,3,4,5,6,7,8,9,10,11,12,13,14,15,16,17,18,19,20,21,0,1,2,3,4,5,6,7,8,9,10,11,12,13,14,15,16,17,18,19,20,21,0,1,2,3,4,5,6,7,8,9,10,11,12,13,14,15,16,17,18,19,20,21,0,1,2,3,4,5,6,7,8,9,10,11,12,13,14,15,16,17,18,19,20,21,0,1,2,3,4,5,6,7,8,9,10,11,12,13,14,15,16,17,18,19,20,21,0,1,2,3,4,5,6,7,8,9,10,11,12,13,14,15,16,17,18,19,20,21,0,1,2,3,4,5,6,7,8,9,10,11,12,13,14,15,16,17,18,19,20,21,0,1,2,3,4,5,6,7,8,9,10,11,12,13,14,15,16,17,18,19,20,21,0,1,2,3,4,5,6,7,8,9,10,11,12,13,14,15,16,17,18,19,20,21,0,1,2,3,4,5,6,7,8,9,10,11,12,13,14,15,16,17,18,19,20,21,0,1,2,3,4,5,6,7,8,9,10,11,12,13,14,15,16,17,18,19,20,21,0,1,2,3,4,5,6,7,8,9,10,11,12,13,14,15,16,17,18,19,20,21,0,1,2,3,4,5,6,7,8,9,10,11,12,13,14,15,16,17,18,19,20,21,0,1,2,3,4,5,6,7,8,9,10,11,12,13,14,15,16,17,18,19,20,21,0,1,2,3,4,5,6,7,8,9,10,11,12,13,14,15,16,17,18,19,20,21,0,1,2,3,4,5,6,7,8,9,10,11,12,13,14,15,16,17,18,19,20,21,0,1,2,3,4,5,6,7,8,9,10,11,12,13,14,15,16,17,18,19,20,21,0,1,2,3,4,5,6,7,8,9,10,11,12,13,14,15,16,17,18,19,20,21,0,1,2,3,4,5,6,7,8,9,10,11,12,13,14,15,16,17,18,19,20,21,0,1,2,3,4,5,6,7,8,9,10,11,12,13,14,15,16,17,18,19,20,21,0,1,2,3,4,5,6,7,8,9,10,11,12,13,14,15,16,17,18,19,20,21,0,1,2,3,4,5,6,7,8,9,10,11,12,13,14,15,16,17,18,19,20,21,0,1,2,3,4,5,6,7,8,9,10,11,12,13,14,15,16,17,18,19,20,21,0,1,2,3,4,5,6,7,8,9,10,11,12,13,14,15,16,17,18,19,20,21,0,1,2,3,4,5,6,7,8,9,10,11,12,13,14,15,16,17,18,19,20,21,0,1,2,3,4,5,6,7,8,9,10,11,12,13,14,15,16,17,18,19,20,21,0,1,2,3,4,5,6,7,8,9,10,11,12,13,14,15,16,17,18,19,20,21,0,1,2,3,4,5,6,7,8,9,10,11,12,13,14,15,16,17,18,19,20,21,0,1,2,3,4,5,6,7,8,9,10,11,12,13,14,15,16,17,18,19,20,21,0,1,2,3,4,5,6,7,8,9,10,11,12,13,14,15,16,17,18,19,20,21,0,1,2,3,4,5,6,7,8,9,10,11,12,13,14,15,16,17,18,19,20,21,0,1,2,3,4,5,6,7,8,9,10,11,12,13,14,15,16,17,18,19,20,21,0,1,2,3,4,5,6,7,8,9,10,11,12,13,14,15,16,17,18,19,20,21,0,1,2,3,4,5,6,7,8,9,10,11,12,13,14,15,16,17,18,19,20,21,0,1,2,3,4,5,6,7,8,9,10,11,12,13,14,15,16,17,18,19,20,21,0,1,2,3,4,5,6,7,8,9,10,11,12,13,14,15,16,17,18,19,20,21,0,1,2,3,4,5,6,7,8,9,10,11,12,13,14,15,16,17,18,19,20,21,0,1,2,3,4,5,6,7,8,9,10,11,12,13,14,15,16,17,18,19,20,21,0,1,2,3,4,5,6,7,8,9,10,11,12,13,14,15,16,17,18,19,20,21,0,1,2,3,4,5,6,7,8,9,10,11,12,13,14,15,16,17,18,19,20,21,0,1,2,3,4,5,6,7,8,9,10,11,12,13,14,15,16,17,18,19,20,21,0,1,2,3,4,5,6,7,8,9,10,11,12,13,14,15,16,17,18,19,20,21,0,1,2,3,4,5,6,7,8,9,10,11,12,13,14,15,16,17,18,19,20,21,0,1,2,3,4,5,6,7,8,9,10,11,12,13,14,15,16,17,18,19,20,21,0,1,2,3,4,5,6,7,8,9,10,11,12,13,14,15,16,17,18,19,20,21,0,1,2,3,4,5,6,7,8,9,10,11,12,13,14,15,16,17,18,19,20,21,0,1,2,3,4,5,6,7,8,9,10,11,12,13,14,15,16,17,18,19,20,21,0,1,2,3,4,5,6,7,8,9,10,11,12,13,14,15,16,17,18,19,20,21,0,1,2,3,4,5,6,7,8,9,10,11,12,13,14,15,16,17,18,19,20,21,0,1,2,3,4,5,6,7,8,9,10,11,12,13,14,15,16,17,18,19,20,21,0,1,2,3,4,5,6,7,8,9,10,11,12,13,14,15,16,17,18,19,20,21,0,1,2,3,4,5,6,7,8,9,10,11,12,13,14,15,16,17,18,19,20,21,0,1,2,3,4,5,6,7,8,9,10,11,12,13,14,15,16,17,18,19,20,21,0,1,2,3,4,5,6,7,8,9,10,11,12,13,14,15,16,17,18,19,20,21,0,1,2,3,4,5,6,7,8,9,10,11,12,13,14,15,16,17,18,19,20,21,0,1,2,3,4,5,6,7,8,9,10,11,12,13,14,15,16,17,18,19,20,21,0,1,2,3,4,5,6,7,8,9,10,11,12,13,14,15,16,17,18,19,20,21,0,1,2,3,4,5,6,7,8,9,10,11,12,13,14,15,16,17,18,19,20,21,0,1,2,3,4,5,6,7,8,9,10,11,12,13,14,15,16,17,18,19,20,21,0,1,2,3,4,5,6,7,8,9,10,11,12,13,14,15,16,17,18,19,20,21,0,1,2,3,4,5,6,7,8,9,10,11,12,13,14,15,16,17,18,19,20,21,0,1,2,3,4,5,6,7,8,9,10,11,12,13,14,15,16,17,18,19,20,21,0,1,2,3,4,5,6,7,8,9,10,11,12,13,14,15,16,17,18,19,20,21,0,1,2,3,4,5,6,7,8,9,10,11,12,13,14,15,16,17,18,19,20,21,0,1,2,3,4,5,6,7,8,9,10,11,12,13,14,15,16,17,18,19,20,21,0,1,2,3,4,5,6,7,8,9,10,11,12,13,14,15,16,17,18,19,20,21],"trees":[{"base_weights":[-2.3263787E-8,-1.5601915E-1,4.886174E0,-1.3735694E-1,2.8844955E0],"categories":[],"categories_nodes":[],"categories_segments":[],"categories_sizes":[],"default_left":[0,0,0,0,0],"id":0,"left_children":[1,-1,3,-1,-1],"loss_changes":[3.9318094E2,0E0,3.8054196E2,0E0,0E0],"parents":[2147483647,0,0,2,2],"right_children":[2,-1,4,-1,-1],"split_conditions":[1.2E2,-1.5601915E-1,8.404404E1,-1.3735694E-1,2.8844955E0],"split_indices":[1,0,4,0,0],"split_type":[0,0,0,0,0],"sum_hessian":[1.5272728E2,1.3884297E2,1.3884297E1,6.9421487E0,6.9421487E0],"tree_param":{"num_deleted":"0","num_feature":"7","num_nodes":"5","size_leaf_vector":"1"}},{"base_weights":[-2.3263787E-8,-1.5580693E-1,1.6466918E0,-1.5193203E-1,2.8844955E0],"categories":[],"categories_nodes":[],"categories_segments":[],"categories_sizes":[],"default_left":[0,0,0,0,0],"id":1,"left_children":[1,-1,3,-1,-1],"loss_changes":[1.3232585E2,0E0,6.41372E2,0E0,0E0],"parents":[2147483647,0,0,2,2],"right_children":[2,-1,4,-1,-1],"split_conditions":[7E1,-1.5580693E-1,6.9E1,-1.5193203E-1,2.8844955E0],"split_indices":[1,0,0,0,0],"split_type":[0,0,0,0,0],"sum_hessian":[1.5272728E2,1.166281E2,3.6099174E1,2.9157024E1,6.9421487E0],"tree_param":{"num_deleted":"0","num_feature":"7","num_nodes":"5","size_leaf_vector":"1"}},{"base_weights":[-2.3263787E-8,8.437785E-1,-1.5550335E-1,-1.5249391E-1,2.563936E0,-1.4452556E-1,4.982481E0,-1.2510532E-1,6.988435E0,4.7826084E-1,8.927456E0,-9.36561E-2,3.6072877E-1,2.8391805E0,8.0161947E-1],"categories":[],"categories_nodes":[],"categories_segments":[],"categories_sizes":[],"default_left":[0,0,0,0,0,0,0,0,0,0,0,0,0,0,0],"id":2,"left_children":[1,3,-1,-1,5,-1,7,-1,9,11,13,-1,-1,-1,-1],"loss_changes":[6.7672745E1,1.3824738E2,0E0,0E0,1.9449808E2,0E0,1.6130856E2,0E0,1.3104028E2,2.3883047E0,2.2384033E0,0E0,0E0,0E0,0E0],"parents":[2147483647,0,0,1,1,4,4,6,6,8,8,9,9,10,10],"right_children":[2,4,-1,-1,6,-1,8,-1,10,12,14,-1,-1,-1,-1],"split_conditions":[7.582271E1,5.9870655E1,-1.5550335E-1,-1.5249391E-1,6.4969344E0,-1.4452556E-1,2.5011576E1,-1.2510532E-1,5.8E1,6.288179E1,2.5E1,-9.36561E-2,3.6072877E-1,2.8391805E0,8.0161947E-1],"split_indices":[6,6,0,0,5,0,3,0,1,4,2,0,0,0,0],"split_type":[0,0,0,0,0,0,0,0,0,0,0,0,0,0,0],"sum_hessian":[1.5272728E2,5.7880165E1,9.484711E1,3.2801655E1,2.5078512E1,1.1454546E1,1.3623967E1,3.9049587E0,9.719008E0,2.5165288E0,7.2024794E0,1.4752066E0,1.0413224E0,6.161157E0,1.0413224E0],"tree_param":{"num_deleted":"0","num_feature":"7","num_nodes":"15","size_leaf_vector":"1"}},{"base_weights":[-2.3263787E-8,7.508656E0,-1.560569E-1,-1.0616623E-1,2.8844955E0],"categories":[],"categories_nodes":[],"categories_segments":[],"categories_sizes":[],"default_left":[0,0,0,0,0],"id":3,"left_children":[1,3,-1,-1,-1],"loss_changes":[6.043531E2,1.694242E2,0E0,0E0,0E0],"parents":[2147483647,0,0,1,1],"right_children":[2,4,-1,-1,-1],"split_conditions":[2.0396597E1,2.6E1,-1.560569E-1,-1.0616623E-1,2.8844955E0],"split_indices":[4,2,0,0,0],"split_type":[0,0,0,0,0],"sum_hessian":[1.5272728E2,9.024794E0,1.4370248E2,2.0826447E0,6.9421487E0],"tree_param":{"num_deleted":"0","num_feature":"7","num_nodes":"5","size_leaf_vector":"1"}},{"base_weights":[-2.3263787E-8,-2.2817321E-1,2.4997997E0,-5.0332105E-1,9.7237563E-1,5.76699E-2,-5.1132476E-1,-1.4997172E-1,5.1397905E0,-1.5583113E-1,-5.583758E-2,2.5895019E0,-1.164706E-1,6.6801615E-2,-8.619403E-2],"categories":[],"categories_nodes":[],"categories_segments":[],"categories_sizes":[],"default_left":[0,0,0,0,0,0,0,0,0,0,0,0,0,0,0],"id":4,"left_children":[1,3,-1,5,7,-1,9,-1,11,-1,13,-1,-1,-1,-1],"loss_changes":[2.9418152E2,5.0237972E1,0E0,7.8405E-1,1.769525E2,0E0,4.2198944E-1,0E0,1.4828476E2,0E0,2.7389812E-1,0E0,0E0,0E0,0E0],"parents":[2147483647,0,0,1,1,3,3,4,4,6,6,8,8,10,10],"right_children":[2,4,-1,6,8,-1,10,-1,12,-1,14,-1,-1,-1,-1],"split_conditions":[9.521224E1,9.0975975E1,2.4997997E0,7E0,1.2825687E2,5.76699E-2,9.071037E1,-1.4997172E-1,3.1E1,-1.5583113E-1,3.8E1,2.5895019E0,-1.164706E-1,6.6801615E-2,-8.619403E-2],"split_indices":[4,4,0,1,6,0,4,0,1,0,0,0,0,0,0],"split_type":[0,0,0,0,0,0,0,0,0,0,0,0,0,0,0],"sum_hessian":[1.5272728E2,1.496033E2,3.123967E0,1.22181816E2,2.7421488E1,1.1280992E0,1.2105372E2,2.0913223E1,6.5082645E0,1.1879752E2,2.2561984E0,3.644628E0,2.8636365E0,1.0413224E0,1.214876E0],"tree_param":{"num_deleted":"0","num_feature":"7","num_nodes":"15","size_leaf_vector":"1"}},{"base_weights":[-2.3263787E-8,-1.5570965E-1,1.2623281E0,7.6501675E0,-1.5280567E-1,-1.03125006E-1,2.8844955E0],"categories":[],"categories_nodes":[],"categories_segments":[],"categories_sizes":[],"default_left":[0,0,0,0,0,0,0],"id":5,"left_children":[1,-1,3,5,-1,-1,-1],"loss_changes":[1.01375595E2,0E0,5.1410626E2,1.5803455E2,0E0,0E0,0E0],"parents":[2147483647,0,0,2,2,3,3],"right_children":[2,-1,4,6,-1,-1,-1],"split_conditions":[8E1,-1.5570965E-1,7.095706E1,1.0975714E2,-1.5280567E-1,-1.03125006E-1,2.8844955E0],"split_indices":[0,0,4,6,0,0,0],"split_type":[0,0,0,0,0,0,0],"sum_hessian":[1.5272728E2,1.0864463E2,4.4082645E1,8.85124E0,3.5231403E1,1.9090909E0,6.9421487E0],"tree_param":{"num_deleted":"0","num_feature":"7","num_nodes":"7","size_leaf_vector":"1"}},{"base_weights":[-2.3263787E-8,-2.0235425E-1,2.4262583E0,-1.5595034E-1,1.8810157E0,7.88189E0,-1.4694208E-1,6.546559E-1,2.6025329E0],"categories":[],"categories_nodes":[],"categories_segments":[],"categories_sizes":[],"default_left":[0,0,0,0,0,0,0,0,0],"id":6,"left_children":[1,3,-1,-1,5,7,-1,-1,-1],"loss_changes":[2.532182E2,1.00820755E2,0E0,0E0,2.9092868E2,7.168457E0,0E0,0E0,0E0],"parents":[2147483647,0,0,1,1,4,4,5,5],"right_children":[2,4,-1,-1,6,8,-1,-1,-1],"split_conditions":[1.21E2,1E2,2.4262583E0,-1.5595034E-1,2.6E1,7.605522E1,-1.4694208E-1,6.546559E-1,2.6025329E0],"split_indices":[0,0,0,0,2,4,0,0,0],"split_type":[0,0,0,0,0,0,0,0,0],"sum_hessian":[1.5272728E2,1.4995041E2,2.7768595E0,1.3077274E2,1.9177687E1,4.7727275E0,1.4404959E1,1.0413224E0,3.731405E0],"tree_param":{"num_deleted":"0","num_feature":"7","num_nodes":"9","size_leaf_vector":"1"}},{"base_weights":[-2.3263787E-8,-1.5601915E-1,4.886174E0,2.8844955E0,-1.3735694E-1],"categories":[],"categories_nodes":[],"categories_segments":[],"categories_sizes":[],"default_left":[0,0,0,0,0],"id":7,"left_children":[1,-1,3,-1,-1],"loss_changes":[3.9318094E2,0E0,3.8054196E2,0E0,0E0],"parents":[2147483647,0,0,2,2],"right_children":[2,-1,4,-1,-1],"split_conditions":[1.2E2,-1.5601915E-1,8.404404E1,2.8844955E0,-1.3735694E-1],"split_indices":[1,0,4,0,0],"split_type":[0,0,0,0,0],"sum_hessian":[1.5272728E2,1.3884297E2,1.3884297E1,6.9421487E0,6.9421487E0],"tree_param":{"num_deleted":"0","num_feature":"7","num_nodes":"5","size_leaf_vector":"1"}},{"base_weights":[-2.3263787E-8,-1.5587343E-1,2.0789368E0,-1.4495032E-1,3.7032537E0,6.3741593E0,-1.3838185E-1,7.578794E0,-9.9697895E-2,5.076923E-1,8.077566E0,6.546559E-1,2.574382E0],"categories":[],"categories_nodes":[],"categories_segments":[],"categories_sizes":[],"default_left":[0,0,0,0,0,0,0,0,0,0,0,0,0],"id":8,"left_children":[1,-1,3,-1,5,7,-1,9,-1,-1,11,-1,-1],"loss_changes":[1.6713174E2,0E0,1.305431E2,0E0,2.1482986E2,9.682767E1,0E0,1.5508423E1,0E0,0E0,7.6932373E0,0E0,0E0],"parents":[2147483647,0,0,2,2,4,4,5,5,7,7,10,10],"right_children":[2,-1,4,-1,6,8,-1,10,-1,-1,12,-1,-1],"split_conditions":[1.4922203E2,-1.5587343E-1,3.5E1,-1.4495032E-1,2.0008827E2,8.9901474E1,-1.3838185E-1,3.7E1,-9.9697895E-2,5.076923E-1,6.09569E0,6.546559E-1,2.574382E0],"split_indices":[6,0,2,0,6,4,0,1,0,0,5,0,0],"split_type":[0,0,0,0,0,0,0,0,0,0,0,0,0],"sum_hessian":[1.5272728E2,1.2278925E2,2.9938017E1,1.188843E1,1.8049587E1,1.0673553E1,7.3760333E0,8.938017E0,1.7355372E0,1.0413224E0,7.896694E0,1.0413224E0,6.855372E0],"tree_param":{"num_deleted":"0","num_feature":"7","num_nodes":"13","size_leaf_vector":"1"}},{"base_weights":[-2.3263787E-8,4.7329373E0,-1.5601566E-1,2.7269363E0,-1.3735694E-1],"categories":[],"categories_nodes":[],"categories_segments":[],"categories_sizes":[],"default_left":[0,0,0,0,0],"id":9,"left_children":[1,3,-1,-1,-1],"loss_changes":[3.8084177E2,3.505903E2,0E0,0E0,0E0],"parents":[2147483647,0,0,1,1],"right_children":[2,4,-1,-1,-1],"split_conditions":[3.413308E1,2.6E1,-1.5601566E-1,2.7269363E0,-1.3735694E-1],"split_indices":[4,2,0,0,0],"split_type":[0,0,0,0,0],"sum_hessian":[1.5272728E2,1.4318182E1,1.3840909E2,7.3760333E0,6.9421487E0],"tree_param":{"num_deleted":"0","num_feature":"7","num_nodes":"5","size_leaf_vector":"1"}},{"base_weights":[-2.3263787E-8,2.1932514E0,-1.5588664E-1,1.365488E-2,2.6455774E0,-1.4928734E-1,2.3903844E0,1.2682836E0,2.9490614E-1,2.1376519E-1,-8.016195E-2],"categories":[],"categories_nodes":[],"categories_segments":[],"categories_sizes":[],"default_left":[0,0,0,0,0,0,0,0,0,0,0],"id":10,"left_children":[1,3,-1,5,-1,-1,7,-1,9,-1,-1],"loss_changes":[1.7633679E2,4.2784552E2,0E0,2.9505049E1,0E0,0E0,1.5298147E1,0E0,9.140898E-1,0E0,0E0],"parents":[2147483647,0,0,1,1,3,3,6,6,8,8],"right_children":[2,4,-1,6,-1,-1,8,-1,10,-1,-1],"split_conditions":[5.521607E1,6E1,-1.5588664E-1,5.5E1,2.6455774E0,-1.4928734E-1,2.7415035E1,1.2682836E0,1.4E1,2.1376519E-1,-8.016195E-2],"split_indices":[6,1,0,1,0,0,3,0,0,0,0],"split_type":[0,0,0,0,0,0,0,0,0,0,0],"sum_hessian":[1.5272728E2,2.8636364E1,1.2409091E2,2.2301653E1,6.3347106E0,1.9004133E1,3.2975206E0,1.214876E0,2.0826447E0,1.0413224E0,1.0413224E0],"tree_param":{"num_deleted":"0","num_feature":"7","num_nodes":"11","size_leaf_vector":"1"}},{"base_weights":[-2.3263787E-8,-1.5551221E-1,8.5597956E-1,4.6740465E0,-1.5356067E-1,2.8467221E0,-3.455776E-1,-1.3596882E-1,5.76699E-2],"categories":[],"categories_nodes":[],"categories_segments":[],"categories_sizes":[],"default_left":[0,0,0,0,0,0,0,0,0],"id":11,"left_children":[1,-1,3,5,-1,-1,7,-1,-1],"loss_changes":[6.8655205E1,0E0,3.0717712E2,3.7770868E2,0E0,0E0,5.8211493E-1,0E0,0E0],"parents":[2147483647,0,0,2,2,3,3,6,6],"right_children":[2,-1,4,6,-1,-1,8,-1,-1],"split_conditions":[6E1,-1.5551221E-1,2.6E1,1E2,-1.5356067E-1,2.8467221E0,2.542517E1,-1.3596882E-1,5.76699E-2],"split_indices":[0,0,2,0,0,0,3,0,0],"split_type":[0,0,0,0,0,0,0,0,0],"sum_hessian":[1.5272728E2,9.536777E1,5.7359505E1,1.4491735E1,4.2867767E1,6.9421487E0,7.549587E0,6.421488E0,1.1280992E0],"tree_param":{"num_deleted":"0","num_feature":"7","num_nodes":"9","size_leaf_vector":"1"}},{"base_weights":[-2.3263787E-8,1.9472482E0,-1.5585628E-1,7.2419286E0,-4.1629997E-1,2.6847458E0,-1.0146414E-1,1.9864078E-1,-1.5011096E-1],"categories":[],"categories_nodes":[],"categories_segments":[],"categories_sizes":[],"default_left":[0,0,0,0,0,0,0,0,0],"id":12,"left_children":[1,3,-1,5,7,-1,-1,-1,-1],"loss_changes":[1.5652771E2,4.1081332E2,0E0,1.338805E2,2.4596686E0,0E0,0E0,0E0,0E0],"parents":[2147483647,0,0,1,1,3,3,4,4],"right_children":[2,4,-1,6,8,-1,-1,-1,-1],"split_conditions":[5.5187923E1,3.9E1,-1.5585628E-1,4.1E1,4.4E1,2.6847458E0,-1.0146414E-1,1.9864078E-1,-1.5011096E-1],"split_indices":[4,1,0,0,1,0,0,0,0],"split_type":[0,0,0,0,0,0,0,0,0],"sum_hessian":[1.5272728E2,3.1586777E1,1.21140495E2,9.11157E0,2.2475206E1,7.289256E0,1.822314E0,1.1280992E0,2.1347107E1],"tree_param":{"num_deleted":"0","num_feature":"7","num_nodes":"9","size_leaf_vector":"1"}},{"base_weights":[-2.3263787E-8,-1.9899316E-1,5.5681114E0,1.5391792E0,-2.773161E-1,2.4262583E0,-9.580646E-2,4.0126973E-1,-5.1005334E-1,5.5910597E0,-3.632761E-1,-2.9129887E-1,-1.5564938E-1,2.2129412E0,-8.330098E-2,7.6153845E-1,-1.5209192E-1,6.6801615E-2,-1.2863569E-1,-1.0888326E-1,6.546559E-1],"categories":[],"categories_nodes":[],"categories_segments":[],"categories_sizes":[],"default_left":[0,0,0,0,0,0,0,0,0,0,0,0,0,0,0,0,0,0,0,0,0],"id":13,"left_children":[1,3,5,-1,7,-1,-1,9,11,13,15,17,-1,-1,-1,19,-1,-1,-1,-1,-1],"loss_changes":[1.7144029E2,6.3781887E1,8.177373E1,0E0,2.3606045E1,0E0,0E0,1.5439914E2,6.157112E-2,5.4352097E1,5.947704E0,5.585917E-1,0E0,0E0,0E0,7.6572742E0,0E0,0E0,0E0,0E0,0E0],"parents":[2147483647,0,0,1,1,2,2,4,4,7,7,8,8,9,9,10,10,11,11,15,15],"right_children":[2,4,6,-1,8,-1,-1,10,12,14,16,18,-1,-1,-1,20,-1,-1,-1,-1,-1],"split_conditions":[8.016211E0,4.546466E0,2.6E1,1.5391792E0,6.1613674E1,2.4262583E0,-9.580646E-2,6.3299007E1,6.37385E1,6E1,7.088787E1,4E1,-1.5564938E-1,2.2129412E0,-8.330098E-2,2.4559816E1,-1.5209192E-1,6.6801615E-2,-1.2863569E-1,-1.0888326E-1,6.546559E-1],"split_indices":[5,5,2,0,4,0,0,6,4,1,6,1,0,0,0,3,0,0,0,0,0],"split_type":[0,0,0,0,0,0,0,0,0,0,0,0,0,0,0,0,0,0,0,0,0],"sum_hessian":[1.5272728E2,1.4838843E2,4.338843E0,1.214876E0,1.4717355E2,2.7768595E0,1.5619835E0,3.7400826E1,1.0977273E2,3.9917355E0,3.3409092E1,5.553719E0,1.0421901E2,2.8636365E0,1.1280992E0,3.2975206E0,3.011157E1,1.0413224E0,4.512397E0,2.2561984E0,1.0413224E0],"tree_param":{"num_deleted":"0","num_feature":"7","num_nodes":"21","size_leaf_vector":"1"}},{"base_weights":[-2.3263787E-8,1.8163804E0,-1.5583682E-1,3.519087E0,-1.4699921E-1,-1.4495032E-1,2.8516212E0],"categories":[],"categories_nodes":[],"categories_segments":[],"categories_sizes":[],"default_left":[0,0,0,0,0,0,0],"id":14,"left_children":[1,3,-1,5,-1,-1,-1],"loss_changes":[1.4598976E2,1.3685178E2,0E0,4.817879E2,0E0,0E0,0E0],"parents":[2147483647,0,0,1,1,3,3],"right_children":[2,4,-1,6,-1,-1,-1],"split_conditions":[6.0745834E1,2.6E1,-1.5583682E-1,6.971184E1,-1.4699921E-1,-1.4495032E-1,2.8516212E0],"split_indices":[6,2,0,4,0,0,0],"split_type":[0,0,0,0,0,0,0],"sum_hessian":[1.5272728E2,3.3409092E1,1.19318184E2,1.8917355E1,1.4491735E1,1.188843E1,7.028926E0],"tree_param":{"num_deleted":"0","num_feature":"7","num_nodes":"7","size_leaf_vector":"1"}},{"base_weights":[-2.3263787E-8,2.7879596E0,-1.560704E-1],"categories":[],"categories_nodes":[],"categories_segments":[],"categories_sizes":[],"default_left":[0,0,0],"id":15,"left_children":[1,-1,-1],"loss_changes":[7.480512E2,0E0,0E0],"parents":[2147483647,0,0],"right_children":[2,-1,-1],"split_conditions":[3.2678917E1,2.7879596E0,-1.560704E-1],"split_indices":[6,0,0],"split_type":[0,0,0],"sum_hessian":[1.5272728E2,7.2024794E0,1.455248E2],"tree_param":{"num_deleted":"0","num_feature":"7","num_nodes":"3","size_leaf_vector":"1"}},{"base_weights":[-2.3263787E-8,2.8500845E0,-4.7276348E-1,5.6646705E-1,-1.5603226E-1,9.48583E-1,-1.3032441E-1],"categories":[],"categories_nodes":[],"categories_segments":[],"categories_sizes":[],"default_left":[0,0,0,0,0,0,0],"id":16,"left_children":[1,-1,3,5,-1,-1,-1],"loss_changes":[6.949399E2,0E0,7.5465355E0,1.930032E1,0E0,0E0,0E0],"parents":[2147483647,0,0,2,2,3,3],"right_children":[2,-1,4,6,-1,-1,-1],"split_conditions":[1.5E1,2.8500845E0,1.6E1,4E1,-1.5603226E-1,9.48583E-1,-1.3032441E-1],"split_indices":[2,0,2,1,0,0,0],"split_type":[0,0,0,0,0,0,0],"sum_hessian":[1.5272728E2,6.3347106E0,1.4639256E2,5.9008265E0,1.4049173E2,1.0413224E0,4.859504E0],"tree_param":{"num_deleted":"0","num_feature":"7","num_nodes":"7","size_leaf_vector":"1"}},{"base_weights":[-2.3263787E-8,-2.0030856E-1,6.3502183E0,-1.5578286E-1,8.449702E-1,6.6801615E-2,2.4057112E0,-1.507332E-1,3.5422437E0,2.66112E0,-1.3691491E-1],"categories":[],"categories_nodes":[],"categories_segments":[],"categories_sizes":[],"default_left":[0,0,0,0,0,0,0,0,0,0,0],"id":17,"left_children":[1,3,5,-1,7,-1,-1,-1,9,-1,-1],"loss_changes":[1.9681355E2,5.0448906E1,4.6596603E1,0E0,1.3061879E2,0E0,0E0,0E0,2.5830334E2,0E0,0E0],"parents":[2147483647,0,0,1,1,2,2,4,4,8,8],"right_children":[2,4,6,-1,8,-1,-1,-1,10,-1,-1],"split_conditions":[3.713165E1,9.009878E1,6.5061207E0,-1.5578286E-1,3.1E1,6.6801615E-2,2.4057112E0,-1.507332E-1,7.1E1,2.66112E0,-1.3691491E-1],"split_indices":[3,4,5,0,1,0,0,0,1,0,0],"split_type":[0,0,0,0,0,0,0,0,0,0,0],"sum_hessian":[1.5272728E2,1.4899586E2,3.731405E0,1.14545456E2,3.4450413E1,1.0413224E0,2.6900826E0,2.351653E1,1.0933885E1,4.1652894E0,6.768595E0],"tree_param":{"num_deleted":"0","num_feature":"7","num_nodes":"11","size_leaf_vector":"1"}},{"base_weights":[-2.3263787E-8,3.0755668E0,-1.721707E-1,-1.2722267E-1,2.0849373E0,7.967888E-1,-4.5770097E-1,1.8991502E-1,4.6373525E0,-9.3572795E-2,-1.555282E-1,-2.0912549E-1,1.4800456E0,2.1984828E0,-9.580646E-2,-4.270724E-1,5.583082E-1,-1.4877942E-1,7.056043E-1,2.7888784E0,-1.164706E-1,6.6801615E-2,-1.4646068E-1,-1.2620017E-1,9.48583E-1,-1.0756193E-1,1.8100746E0],"categories":[],"categories_nodes":[],"categories_segments":[],"categories_sizes":[],"default_left":[0,0,0,0,0,0,0,0,0,0,0,0,0,0,0,0,0,0,0,0,0,0,0,0,0,0,0],"id":18,"left_children":[1,3,5,-1,-1,7,9,11,13,15,-1,17,19,-1,-1,21,-1,-1,23,25,-1,-1,-1,-1,-1,-1,-1],"loss_changes":[8.193156E1,1.14159706E2,4.0903305E1,0E0,0E0,7.769982E1,2.4680767E0,1.58347845E1,6.3133484E1,1.2194233E1,0E0,6.6224785E0,1.8805876E1,0E0,0E0,7.3436165E-1,0E0,0E0,1.8260677E1,4.6937656E1,0E0,0E0,0E0,0E0,0E0,0E0,0E0],"parents":[2147483647,0,0,1,1,2,2,5,5,6,6,7,7,8,8,9,9,11,11,12,12,15,15,18,18,19,19],"right_children":[2,4,6,-1,-1,8,10,12,14,16,-1,18,20,-1,-1,22,-1,-1,24,26,-1,-1,-1,-1,-1,-1,-1],"split_conditions":[5.3915606E0,5.5E1,6.020017E1,-1.2722267E-1,2.0849373E0,1.5667325E2,6.740461E1,1.14282135E2,4E1,1.4922203E2,-1.555282E-1,7.2E1,2.9E1,2.1984828E0,-9.580646E-2,5.9190454E0,5.583082E-1,-1.4877942E-1,2.4253862E1,3.413308E1,-1.164706E-1,6.6801615E-2,-1.4646068E-1,-1.2620017E-1,9.48583E-1,-1.0756193E-1,1.8100746E0],"split_indices":[5,1,4,0,0,6,4,6,0,6,0,1,0,0,0,5,0,0,4,4,0,0,0,0,0,0,0],"split_type":[0,0,0,0,0,0,0,0,0,0,0,0,0,0,0,0,0,0,0,0,0,0,0,0,0,0,0],"sum_hessian":[1.5272728E2,7.2024794E0,1.455248E2,4.252066E0,2.9504132E0,3.2714878E1,1.1280992E2,2.9157024E1,3.5578513E0,1.6487604E1,9.632231E1,2.2909092E1,6.247934E0,1.9958677E0,1.5619835E0,1.4752067E1,1.7355372E0,1.7789257E1,5.119835E0,3.3842976E0,2.8636365E0,1.0413224E0,1.3710744E1,4.078512E0,1.0413224E0,2.1694214E0,1.214876E0],"tree_param":{"num_deleted":"0","num_feature":"7","num_nodes":"27","size_leaf_vector":"1"}},{"base_weights":[-2.3263787E-8,1.3793513E0,-5.1031756E-1,4.4969997E0,-1.5131116E-1,-4.551729E-3,-1.5572649E-1,-1.3347854E-1,7.2739058E0,2.8799052E0,-1.1013598E-1],"categories":[],"categories_nodes":[],"categories_segments":[],"categories_sizes":[],"default_left":[0,0,0,0,0,0,0,0,0,0,0],"id":19,"left_children":[1,3,5,7,-1,-1,-1,-1,9,-1,-1],"loss_changes":[1.08913635E2,2.4766309E2,4.8260117E-1,2.205971E2,0E0,0E0,0E0,0E0,1.8476245E2,0E0,0E0],"parents":[2147483647,0,0,1,1,2,2,3,3,8,8],"right_children":[2,4,6,8,-1,-1,-1,-1,10,-1,-1],"split_conditions":[3E1,2.4982874E1,3.1E1,3.5E1,-1.5131116E-1,-4.551729E-3,-1.5572649E-1,-1.3347854E-1,4.1E1,2.8799052E0,-1.1013598E-1],"split_indices":[1,3,1,2,0,0,0,0,0,0,0],"split_type":[0,0,0,0,0,0,0,0,0,0,0],"sum_hessian":[1.5272728E2,4.0785126E1,1.1194215E2,1.4838843E1,2.5946281E1,1.9958677E0,1.0994628E2,5.640496E0,9.198347E0,6.855372E0,2.3429751E0],"tree_param":{"num_deleted":"0","num_feature":"7","num_nodes":"11","size_leaf_vector":"1"}},{"base_weights":[-2.3263787E-8,-3.441733E-1,7.183411E0,-1.5598983E-1,1.6207818E0,2.7196221E0,-9.134949E-2,-1.290775E-1,2.8904254E0,4.1409883E0,-1.0616623E-1,-1.03125006E-1,1.9496717E0],"categories":[],"categories_nodes":[],"categories_segments":[],"categories_sizes":[],"default_left":[0,0,0,0,0,0,0,0,0,0,0,0,0],"id":20,"left_children":[1,3,5,-1,7,-1,-1,-1,9,11,-1,-1,-1],"loss_changes":[3.8253815E2,5.1845734E1,1.024541E2,0E0,3.3450413E1,0E0,0E0,0E0,3.298433E1,6.2360878E1,0E0,0E0,0E0],"parents":[2147483647,0,0,1,1,2,2,4,4,8,8,9,9],"right_children":[2,4,6,-1,8,-1,-1,-1,10,12,-1,-1,-1],"split_conditions":[2.212092E2,1.8244824E2,8.50864E1,-1.5598983E-1,3.5E1,2.7196221E0,-9.134949E-2,-1.290775E-1,8.480084E1,8.0031E1,-1.0616623E-1,-1.03125006E-1,1.9496717E0],"split_indices":[6,6,4,0,2,0,0,0,4,4,0,0,0],"split_type":[0,0,0,0,0,0,0,0,0,0,0,0,0],"sum_hessian":[1.5272728E2,1.466529E2,6.0743804E0,1.3528513E2,1.1367768E1,4.6859503E0,1.3884298E0,4.5991735E0,6.768595E0,4.6859503E0,2.0826447E0,1.9090909E0,2.7768595E0],"tree_param":{"num_deleted":"0","num_feature":"7","num_nodes":"13","size_leaf_vector":"1"}},{"base_weights":[-2.3263787E-8,1.8584352E0,-1.5584336E-1,-1.4925312E-1,4.886174E0,2.8844955E0,-1.3735694E-1],"categories":[],"categories_nodes":[],"categories_segments":[],"categories_sizes":[],"default_left":[0,0,0,0,0,0,0],"id":21,"left_children":[1,3,-1,-1,5,-1,-1],"loss_changes":[1.4937616E2,2.435445E2,0E0,0E0,3.8054196E2,0E0,0E0],"parents":[2147483647,0,0,1,1,4,4],"right_children":[2,4,-1,-1,6,-1,-1],"split_conditions":[5.9870655E1,6.9E1,-1.5584336E-1,-1.4925312E-1,2.7022692E1,2.8844955E0,-1.3735694E-1],"split_indices":[6,0,0,0,3,0,0],"split_type":[0,0,0,0,0,0,0],"sum_hessian":[1.5272728E2,3.2801655E1,1.1992562E2,1.8917355E1,1.3884297E1,6.9421487E0,6.9421487E0],"tree_param":{"num_deleted":"0","num_feature":"7","num_nodes":"7","size_leaf_vector":"1"}},{"base_weights":[-3.33561E-2,-1.5235582E-1,8.529854E-1,-1.2161172E-1,2.9372677E-1],"categories":[],"categories_nodes":[],"categories_segments":[],"categories_sizes":[],"default_left":[0,0,0,0,0],"id":22,"left_children":[1,-1,3,-1,-1],"loss_changes":[5.4002407E1,0E0,7.5037003E0,0E0,0E0],"parents":[2147483647,0,0,2,2],"right_children":[2,-1,4,-1,-1],"split_conditions":[1.2E2,-1.5235582E-1,8.404404E1,-1.2161172E-1,2.9372677E-1],"split_indices":[1,0,4,0,0],"split_type":[0,0,0,0,0],"sum_hessian":[1.2637408E2,8.258813E1,4.3785946E1,3.7865314E0,3.9999416E1],"tree_param":{"num_deleted":"0","num_feature":"7","num_nodes":"5","size_leaf_vector":"1"}},{"base_weights":[-3.3777528E-2,-1.520098E-1,5.417129E-1,-1.4551984E-1,2.933646E-1],"categories":[],"categories_nodes":[],"categories_segments":[],"categories_sizes":[],"default_left":[0,0,0,0,0],"id":23,"left_children":[1,-1,3,-1,-1],"loss_changes":[3.4943356E1,0E0,2.6424429E1,0E0,0E0],"parents":[2147483647,0,0,2,2],"right_children":[2,-1,4,-1,-1],"split_conditions":[7E1,-1.520098E-1,6.9E1,-1.4551984E-1,2.933646E-1],"split_indices":[1,0,0,0,0],"split_type":[0,0,0,0,0],"sum_hessian":[1.2638322E2,6.943941E1,5.694381E1,1.6944027E1,3.9999783E1],"tree_param":{"num_deleted":"0","num_feature":"7","num_nodes":"5","size_leaf_vector":"1"}},{"base_weights":[-7.156928E-4,4.1963273E-1,-1.5148759E-1,-1.4644462E-1,7.8012836E-1,9.9356955E-1,-1.3570726E-1,-1.1632437E-1,1.1105192E0,9.86229E-1,7.960051E-1,-8.479901E-2,3.1059182E-1],"categories":[],"categories_nodes":[],"categories_segments":[],"categories_sizes":[],"default_left":[0,0,0,0,0,0,0,0,0,0,0,0,0],"id":24,"left_children":[1,3,-1,-1,5,7,-1,-1,9,11,-1,-1,-1],"loss_changes":[2.670938E1,2.2870937E1,0E0,0E0,1.3490803E1,7.307518E0,0E0,0E0,4.9587593E0,2.6685066E0,0E0,0E0,0E0],"parents":[2147483647,0,0,1,1,4,4,5,5,8,8,9,9],"right_children":[2,4,-1,-1,6,8,-1,-1,10,12,-1,-1,-1],"split_conditions":[7.582271E1,5.9870655E1,-1.5148759E-1,-1.4644462E-1,7.095706E1,5.9966694E1,-1.3570726E-1,-1.1632437E-1,2.5E1,5.5E1,7.960051E-1,-8.479901E-2,3.1059182E-1],"split_indices":[6,6,0,0,4,4,0,0,2,1,0,0,0],"split_type":[0,0,0,0,0,0,0,0,0,0,0,0,0],"sum_hessian":[1.2401305E2,6.772431E1,5.628874E1,1.9149338E1,4.8574974E1,4.1569794E1,7.0051827E0,3.0640554E0,3.8505737E1,3.715201E1,1.3537264E0,1.2061926E0,3.5945816E1],"tree_param":{"num_deleted":"0","num_feature":"7","num_nodes":"13","size_leaf_vector":"1"}},{"base_weights":[-3.3229638E-2,9.3518686E-1,-1.5239021E-1,-8.5617095E-2,2.938052E-1],"categories":[],"categories_nodes":[],"categories_segments":[],"categories_sizes":[],"default_left":[0,0,0,0,0],"id":25,"left_children":[1,3,-1,-1,-1],"loss_changes":[5.90293E1,2.556942E0,0E0,0E0,0E0],"parents":[2147483647,0,0,1,1],"right_children":[2,4,-1,-1,-1],"split_conditions":[2.0396597E1,2.6E1,-1.5239021E-1,-8.5617095E-2,2.938052E-1],"split_indices":[4,2,0,0,0],"split_type":[0,0,0,0,0],"sum_hessian":[1.2636278E2,4.1249043E1,8.511374E1,1.2496533E0,3.999939E1],"tree_param":{"num_deleted":"0","num_feature":"7","num_nodes":"5","size_leaf_vector":"1"}},{"base_weights":[2.6044585E-2,-4.7985253E-1,7.3348254E-1,-1.5196006E-1,-7.04989E-2,-1.4197199E-1,1.0961887E0,-1.20807596E-1,2.1576722E-1,3.5217333E-1,-1.0080083E-1],"categories":[],"categories_nodes":[],"categories_segments":[],"categories_sizes":[],"default_left":[0,0,0,0,0,0,0,0,0,0,0],"id":26,"left_children":[1,3,5,-1,7,-1,9,-1,-1,-1,-1],"loss_changes":[4.51486E1,7.6797676E-1,2.35341E1,0E0,1.7756037E0,0E0,4.9285774E0,0E0,0E0,0E0,0E0],"parents":[2147483647,0,0,1,1,2,2,4,4,6,6],"right_children":[2,4,6,-1,8,-1,10,-1,-1,-1,-1],"split_conditions":[9.0975975E1,8.9901474E1,1.2825687E2,-1.5196006E-1,1.16802086E2,-1.4197199E-1,3.1E1,-1.20807596E-1,2.1576722E-1,3.5217333E-1,-1.0080083E-1],"split_indices":[4,4,6,0,6,0,1,0,0,0,0],"split_type":[0,0,0,0,0,0,0,0,0,0,0],"sum_hessian":[1.24168465E2,7.25843E1,5.158417E1,6.791998E1,4.6643095E0,1.185104E1,3.9733128E1,3.628207E0,1.0361028E0,3.7858932E1,1.8741963E0],"tree_param":{"num_deleted":"0","num_feature":"7","num_nodes":"11","size_leaf_vector":"1"}},{"base_weights":[-2.7918318E-2,-1.5188621E-1,4.7718567E-1,9.6018994E-1,-1.4688754E-1,-8.179783E-2,3.0028808E-1],"categories":[],"categories_nodes":[],"categories_segments":[],"categories_sizes":[],"default_left":[0,0,0,0,0,0,0],"id":27,"left_children":[1,-1,3,5,-1,-1,-1],"loss_changes":[3.102151E1,0E0,2.9645073E1,2.3840103E0,0E0,0E0,0E0],"parents":[2147483647,0,0,2,2,3,3],"right_children":[2,-1,4,6,-1,-1,-1],"split_conditions":[8E1,-1.5188621E-1,7.095706E1,1.0975714E2,-1.4688754E-1,-8.179783E-2,3.0028808E-1],"split_indices":[0,0,4,6,0,0,0],"split_type":[0,0,0,0,0,0,0],"sum_hessian":[1.2638655E2,6.4909935E1,6.1476616E1,4.1000317E1,2.04763E1,1.1304058E0,3.986991E1],"tree_param":{"num_deleted":"0","num_feature":"7","num_nodes":"7","size_leaf_vector":"1"}},{"base_weights":[3.8124595E-2,-1.5220955E-1,9.537542E-1,1.2528294E0,-1.3649991E-1,2.8412623E-2,3.8650706E-1],"categories":[],"categories_nodes":[],"categories_segments":[],"categories_sizes":[],"default_left":[0,0,0,0,0,0,0],"id":28,"left_children":[1,-1,3,5,-1,-1,-1],"loss_changes":[6.2433098E1,0E0,2.0225819E1,1.4723167E0,0E0,0E0,0E0],"parents":[2147483647,0,0,2,2,3,3],"right_children":[2,-1,4,6,-1,-1,-1],"split_conditions":[1E2,-1.5220955E-1,2.6E1,7.51464E1,-1.3649991E-1,2.8412623E-2,3.8650706E-1],"split_indices":[0,0,2,4,0,0,0],"split_type":[0,0,0,0,0,0,0],"sum_hessian":[1.23030716E2,7.7378235E1,4.565249E1,3.774912E1,7.90337E0,1.2326607E0,3.6516457E1],"tree_param":{"num_deleted":"0","num_feature":"7","num_nodes":"7","size_leaf_vector":"1"}},{"base_weights":[-3.31738E-2,-1.5235582E-1,8.534809E-1,2.9391298E-1,-1.2162867E-1],"categories":[],"categories_nodes":[],"categories_segments":[],"categories_sizes":[],"default_left":[0,0,0,0,0],"id":29,"left_children":[1,-1,3,-1,-1],"loss_changes":[5.4042664E1,0E0,7.514366E0,0E0,0E0],"parents":[2147483647,0,0,2,2],"right_children":[2,-1,4,-1,-1],"split_conditions":[1.2E2,-1.5235582E-1,8.404404E1,2.9391298E-1,-1.2162867E-1],"split_indices":[1,0,4,0,0],"split_type":[0,0,0,0,0],"sum_hessian":[1.2637524E2,8.258813E1,4.378711E1,3.9998318E1,3.7887921E0],"tree_param":{"num_deleted":"0","num_feature":"7","num_nodes":"5","size_leaf_vector":"1"}},{"base_weights":[2.0485258E-2,-1.5194294E-1,7.045634E-1,-1.371369E-1,9.0314513E-1,1.0137807E0,-1.1969875E-1,-1.2480454E-1,1.1221453E0,-1.3670574E-1,1.1986014E0,3.7397495E-1,1.9741778E-1],"categories":[],"categories_nodes":[],"categories_segments":[],"categories_sizes":[],"default_left":[0,0,0,0,0,0,0,0,0,0,0,0,0],"id":30,"left_children":[1,-1,3,-1,5,7,-1,-1,9,-1,11,-1,-1],"loss_changes":[4.606374E1,0E0,1.3236904E1,0E0,7.2922516E0,7.33823E0,0E0,0E0,5.551937E0,0E0,2.132988E-1,0E0,0E0],"parents":[2147483647,0,0,2,2,4,4,5,5,8,8,10,10],"right_children":[2,-1,4,-1,6,8,-1,-1,10,-1,12,-1,-1],"split_conditions":[1.4922203E2,-1.5194294E-1,5.9E1,-1.371369E-1,2.0008827E2,6.940732E1,-1.1969875E-1,-1.2480454E-1,2.2696577E1,-1.3670574E-1,9.2E1,3.7397495E-1,1.9741778E-1],"split_indices":[6,0,0,0,6,4,0,0,3,0,0,0,0],"split_type":[0,0,0,0,0,0,0,0,0,0,0,0,0],"sum_hessian":[1.2579349E2,7.120342E1,5.459007E1,7.7793856E0,4.6810684E1,4.3349014E1,3.461671E0,2.8539593E0,4.0495056E1,1.6423154E0,3.8852737E1,3.448543E1,4.3673058E0],"tree_param":{"num_deleted":"0","num_feature":"7","num_nodes":"13","size_leaf_vector":"1"}},{"base_weights":[-1.976896E-2,9.303799E-1,-4.9733123E-1,3.2042664E-1,-1.21621214E-1,-1.821129E-1,-1.5233628E-1,-1.5668674E-1,8.69386E-2],"categories":[],"categories_nodes":[],"categories_segments":[],"categories_sizes":[],"default_left":[0,0,0,0,0,0,0,0,0],"id":31,"left_children":[1,3,5,-1,-1,7,-1,-1,-1],"loss_changes":[5.896379E1,8.429947E0,1.9247627E-1,0E0,0E0,8.4724844E-1,0E0,0E0,0E0],"parents":[2147483647,0,0,1,1,2,2,5,5],"right_children":[2,4,6,-1,-1,8,-1,-1,-1],"split_conditions":[2.4938963E1,2.6E1,3.413308E1,3.2042664E-1,-1.21621214E-1,5.6236157E0,-1.5233628E-1,-1.5668674E-1,8.69386E-2],"split_indices":[4,2,4,0,0,5,0,0,0],"split_type":[0,0,0,0,0,0,0,0,0],"sum_hessian":[1.27926506E2,4.2473618E1,8.545289E1,3.8685814E1,3.7878013E0,3.3349092E0,8.211798E1,1.8759013E0,1.459008E0],"tree_param":{"num_deleted":"0","num_feature":"7","num_nodes":"9","size_leaf_vector":"1"}},{"base_weights":[1.9834165E-2,7.7782184E-1,-4.9746954E-1,1.1467249E0,-1.5002453E-1,1.7856354E-2,-1.5209055E-1,-1.16056934E-1,1.2694031E0,6.6810167E-1,3.3174604E-1],"categories":[],"categories_nodes":[],"categories_segments":[],"categories_sizes":[],"default_left":[0,0,0,0,0,0,0,0,0,0,0],"id":32,"left_children":[1,3,5,7,-1,-1,-1,-1,9,-1,-1],"loss_changes":[4.9743046E1,2.4827541E1,4.2923164E-1,8.059326E0,0E0,0E0,0E0,0E0,3.4086761E0,0E0,0E0],"parents":[2147483647,0,0,1,1,2,2,3,3,8,8],"right_children":[2,4,6,8,-1,-1,-1,-1,10,-1,-1],"split_conditions":[5.4733677E1,6.971184E1,5.521607E1,5.9966694E1,-1.5002453E-1,1.7856354E-2,-1.5209055E-1,-1.16056934E-1,6E1,6.6810167E-1,3.3174604E-1],"split_indices":[6,4,6,4,0,0,0,0,1,0,0],"split_type":[0,0,0,0,0,0,0,0,0,0,0],"sum_hessian":[1.24873146E2,5.0448727E1,7.442442E1,3.9227306E1,1.122142E1,1.1596516E0,7.326477E1,2.746042E0,3.6481262E1,3.48229E0,3.2998974E1],"tree_param":{"num_deleted":"0","num_feature":"7","num_nodes":"11","size_leaf_vector":"1"}},{"base_weights":[-2.628419E-2,-1.5156285E-1,3.670502E-1,8.3859247E-1,-1.4799553E-1,9.935465E-1,-1.2763648E-1,3.0551067E-1,1.4182E-2],"categories":[],"categories_nodes":[],"categories_segments":[],"categories_sizes":[],"default_left":[0,0,0,0,0,0,0,0,0],"id":33,"left_children":[1,-1,3,5,-1,7,-1,-1,-1],"loss_changes":[2.4202225E1,0E0,2.9048286E1,9.425457E0,0E0,9.206238E-1,0E0,0E0,0E0],"parents":[2147483647,0,0,2,2,3,3,5,5],"right_children":[2,-1,4,6,-1,8,-1,-1,-1],"split_conditions":[6E1,-1.5156285E-1,2.6E1,1.01E2,-1.4799553E-1,6.9708595E0,-1.2763648E-1,3.0551067E-1,1.4182E-2],"split_indices":[0,0,2,0,0,5,0,0,0],"split_type":[0,0,0,0,0,0,0,0,0],"sum_hessian":[1.2649267E2,5.6911995E1,6.958067E1,4.496307E1,2.4617601E1,4.024376E1,4.71931E0,3.914084E1,1.1029198E0],"tree_param":{"num_deleted":"0","num_feature":"7","num_nodes":"9","size_leaf_vector":"1"}},{"base_weights":[-1.0560466E-2,6.1039513E-1,-1.5199013E-1,9.582249E-1,-1.4388111E-1,-1.6806534E-1,1.0786408E0,3.388281E-1,-8.6181864E-2],"categories":[],"categories_nodes":[],"categories_segments":[],"categories_sizes":[],"default_left":[0,0,0,0,0,0,0,0,0],"id":34,"left_children":[1,3,-1,5,-1,-1,7,-1,-1],"loss_changes":[3.991155E1,2.2278055E1,0E0,8.642143E0,0E0,0E0,3.1735954E0,0E0,0E0],"parents":[2147483647,0,0,1,1,3,3,6,6],"right_children":[2,4,-1,6,-1,-1,8,-1,-1],"split_conditions":[5.5187923E1,4.1E1,-1.5199013E-1,2.5E1,-1.4388111E-1,-1.6806534E-1,4.1E1,3.388281E-1,-8.6181864E-2],"split_indices":[4,1,0,2,0,0,0,0,0],"split_type":[0,0,0,0,0,0,0,0,0],"sum_hessian":[1.2756242E2,5.6548218E1,7.1014206E1,4.2960102E1,1.3588115E1,2.8881555E0,4.007195E1,3.880237E1,1.2695804E0],"tree_param":{"num_deleted":"0","num_feature":"7","num_nodes":"9","size_leaf_vector":"1"}},{"base_weights":[8.979683E-2,6.742638E-1,-1.5153563E-1,1.2466359E0,-1.4728063E-1,1.5180132E0,-1.3112898E-1,-1.200148E-1,1.6434195E0,5.913804E-1,4.175592E-1],"categories":[],"categories_nodes":[],"categories_segments":[],"categories_sizes":[],"default_left":[0,0,0,0,0,0,0,0,0,0,0],"id":35,"left_children":[1,3,-1,5,-1,7,-1,-1,9,-1,-1],"loss_changes":[4.2314724E1,4.1508865E1,0E0,1.9582108E1,0E0,9.288055E0,0E0,0E0,4.9942017E-2,0E0,0E0],"parents":[2147483647,0,0,1,1,3,3,5,5,8,8],"right_children":[2,4,-1,6,-1,8,-1,-1,10,-1,-1],"split_conditions":[6.506602E1,7.462069E1,-1.5153563E-1,6.1E1,-1.4728063E-1,2.355882E1,-1.3112898E-1,-1.200148E-1,6.2761984E0,5.913804E-1,4.175592E-1],"split_indices":[4,6,0,1,0,3,0,0,5,0,0],"split_type":[0,0,0,0,0,0,0,0,0,0,0],"sum_hessian":[1.1971646E2,6.032126E1,5.9395203E1,4.0404007E1,1.9917252E1,3.4880527E1,5.5234795E0,2.0061934E0,3.2874332E1,1.1304737E1,2.1569597E1],"tree_param":{"num_deleted":"0","num_feature":"7","num_nodes":"11","size_leaf_vector":"1"}},{"base_weights":[-2.8938388E-2,5.7056034E-1,-1.5202849E-1,-1.4224935E-1,7.704049E-1,-1.2611762E-1,9.0296793E-1,-1.1100294E-1,2.9708067E-1],"categories":[],"categories_nodes":[],"categories_segments":[],"categories_sizes":[],"default_left":[0,0,0,0,0,0,0,0,0],"id":36,"left_children":[1,3,-1,-1,5,-1,7,-1,-1],"loss_changes":[3.6896553E1,1.2297455E1,0E0,0E0,8.012733E0,0E0,5.237221E0,0E0,0E0],"parents":[2147483647,0,0,1,1,4,4,6,6],"right_children":[2,4,-1,-1,6,-1,8,-1,-1],"split_conditions":[6.0745834E1,2.693142E1,-1.5202849E-1,-1.4224935E-1,3.537493E1,-1.2611762E-1,6.971184E1,-1.1100294E-1,2.9708067E-1],"split_indices":[6,3,0,0,6,0,4,0,0],"split_type":[0,0,0,0,0,0,0,0,0],"sum_hessian":[1.2679491E2,5.6151104E1,7.06438E1,8.795953E0,4.735515E1,4.5261407E0,4.282901E1,2.5408769E0,4.028813E1],"tree_param":{"num_deleted":"0","num_feature":"7","num_nodes":"9","size_leaf_vector":"1"}},{"base_weights":[-2.5160935E-2,9.68935E-1,-1.5239975E-1,-1.3872717E-1,3.0874777E-1],"categories":[],"categories_nodes":[],"categories_segments":[],"categories_sizes":[],"default_left":[0,0,0,0,0],"id":37,"left_children":[1,3,-1,-1,-1],"loss_changes":[6.2076305E1,4.1213074E0,0E0,0E0,0E0],"parents":[2147483647,0,0,1,1],"right_children":[2,4,-1,-1,-1],"split_conditions":[3.2678917E1,4.1E1,-1.5239975E-1,-1.3872717E-1,3.0874777E-1],"split_indices":[6,0,0,0,0],"split_type":[0,0,0,0,0],"sum_hessian":[1.2730352E2,4.1288845E1,8.601467E1,1.3974335E0,3.989141E1],"tree_param":{"num_deleted":"0","num_feature":"7","num_nodes":"5","size_leaf_vector":"1"}},{"base_weights":[-8.835623E-3,9.734362E-1,-1.52322E-1,1.1114955E0,-1.2189966E-1,2.9811746E-1,7.241919E-1],"categories":[],"categories_nodes":[],"categories_segments":[],"categories_sizes":[],"default_left":[0,0,0,0,0,0,0],"id":38,"left_children":[1,3,-1,5,-1,-1,-1],"loss_changes":[6.2019245E1,8.572292E0,0E0,3.5866776E0,0E0,0E0,0E0],"parents":[2147483647,0,0,1,1,3,3],"right_children":[2,4,-1,6,-1,-1,-1],"split_conditions":[1.6E1,3.1E1,-1.52322E-1,1.5E1,-1.2189966E-1,2.9811746E-1,7.241919E-1],"split_indices":[2,1,0,2,0,0,0],"split_type":[0,0,0,0,0,0,0],"sum_hessian":[1.2454591E2,4.163041E1,8.2915504E1,3.802052E1,3.6098905E0,3.648452E1,1.5359987E0],"tree_param":{"num_deleted":"0","num_feature":"7","num_nodes":"7","size_leaf_vector":"1"}},{"base_weights":[2.6410487E-2,-1.519764E-1,6.758319E-1,-1.4378338E-1,1.0623262E0,3.6445084E-1,-1.2162797E-1],"categories":[],"categories_nodes":[],"categories_segments":[],"categories_sizes":[],"default_left":[0,0,0,0,0,0,0],"id":39,"left_children":[1,-1,3,-1,5,-1,-1],"loss_changes":[4.3669235E1,0E0,2.5890257E1,0E0,1.0097664E1,0E0,0E0],"parents":[2147483647,0,0,2,2,4,4],"right_children":[2,-1,4,-1,6,-1,-1],"split_conditions":[9.002575E1,-1.519764E-1,3.1E1,-1.4378338E-1,7.1E1,3.6445084E-1,-1.2162797E-1],"split_indices":[4,0,1,0,1,0,0],"split_type":[0,0,0,0,0,0,0],"sum_hessian":[1.2417128E2,6.831949E1,5.585179E1,1.3942371E1,4.190942E1,3.8120724E1,3.7886963E0],"tree_param":{"num_deleted":"0","num_feature":"7","num_nodes":"7","size_leaf_vector":"1"}},{"base_weights":[1.12226546E-1,6.653469E-1,-4.7413662E-1,-1.5049021E-1,1.2310169E0,1.2020203E-1,-1.5134145E-1,-1.3713595E-1,1.6360524E0,-1.1955231E-1,1.8734026E0,5.726529E-1,1.6438386E-1],"categories":[],"categories_nodes":[],"categories_segments":[],"categories_sizes":[],"default_left":[0,0,0,0,0,0,0,0,0,0,0,0,0],"id":40,"left_children":[1,3,5,-1,7,-1,-1,-1,9,-1,11,-1,-1],"loss_changes":[3.892879E1,4.133454E1,1.7512455E0,0E0,2.9351341E1,0E0,0E0,0E0,1.7144257E1,0E0,3.907547E-1,0E0,0E0],"parents":[2147483647,0,0,1,1,2,2,4,4,8,8,10,10],"right_children":[2,4,6,-1,8,-1,-1,-1,10,-1,12,-1,-1],"split_conditions":[6.740461E1,9.131256E1,5.316876E0,-1.5049021E-1,5.5E1,1.2020203E-1,-1.5134145E-1,-1.3713595E-1,2.4938963E1,-1.1955231E-1,4E1,5.726529E-1,1.6438386E-1],"split_indices":[4,6,5,0,1,0,0,0,4,0,0,0,0],"split_type":[0,0,0,0,0,0,0,0,0,0,0,0,0],"sum_hessian":[1.18055885E2,6.0680683E1,5.7375202E1,1.984778E1,4.08329E1,1.5137144E0,5.586149E1,7.8764133E0,3.295649E1,3.3720846E0,2.9584404E1,2.8385292E1,1.199111E0],"tree_param":{"num_deleted":"0","num_feature":"7","num_nodes":"13","size_leaf_vector":"1"}},{"base_weights":[-3.058818E-2,4.8658195E-1,-1.5192556E-1,8.413834E-1,-1.4506303E-1,-1.1923092E-1,9.518357E-1,3.003233E-1,-8.879359E-2],"categories":[],"categories_nodes":[],"categories_segments":[],"categories_sizes":[],"default_left":[0,0,0,0,0,0,0,0,0],"id":41,"left_children":[1,3,-1,5,-1,-1,7,-1,-1],"loss_changes":[3.155942E1,2.1569613E1,0E0,6.588192E0,0E0,0E0,2.8747292E0,0E0,0E0],"parents":[2147483647,0,0,1,1,3,3,6,6],"right_children":[2,4,-1,6,-1,-1,8,-1,-1],"split_conditions":[3.1E1,2.4982874E1,-1.5192556E-1,3.5E1,-1.4506303E-1,-1.1923092E-1,4.1E1,3.003233E-1,-8.879359E-2],"split_indices":[1,3,0,2,0,0,0,0,0],"split_type":[0,0,0,0,0,0,0,0,0],"sum_hessian":[1.26244545E2,6.048359E1,6.5760956E1,4.4383892E1,1.6099699E1,3.4205983E0,4.0963295E1,3.9598373E1,1.3649203E0],"tree_param":{"num_deleted":"0","num_feature":"7","num_nodes":"9","size_leaf_vector":"1"}},{"base_weights":[2.8282596E-2,-1.5220182E-1,9.612845E-1,-1.2361296E-1,1.1005096E0,-1.0332832E-1,1.182215E0,3.6268792E-1,3.449101E-2],"categories":[],"categories_nodes":[],"categories_segments":[],"categories_sizes":[],"default_left":[0,0,0,0,0,0,0,0,0],"id":42,"left_children":[1,-1,3,-1,5,-1,7,-1,-1],"loss_changes":[6.3044636E1,0E0,9.248699E0,0E0,5.370167E0,0E0,1.0031319E0,0E0,0E0],"parents":[2147483647,0,0,2,2,4,4,6,6],"right_children":[2,-1,4,-1,6,-1,8,-1,-1],"split_conditions":[1.8244824E2,-1.5220182E-1,5.9E1,-1.2361296E-1,8.0031E1,-1.0332832E-1,8.4884575E1,3.6268792E-1,3.449101E-2],"split_indices":[6,0,0,0,4,0,4,0,0],"split_type":[0,0,0,0,0,0,0,0,0],"sum_hessian":[1.24179886E2,7.918006E1,4.499982E1,3.9617052E0,4.1038116E1,2.0242515E0,3.9013866E1,3.7930553E1,1.0833133E0],"tree_param":{"num_deleted":"0","num_feature":"7","num_nodes":"9","size_leaf_vector":"1"}},{"base_weights":[-3.3653405E-2,5.6938237E-1,-1.5203506E-1,-1.4202327E-1,8.476888E-1,2.9378313E-1,-1.2291252E-1],"categories":[],"categories_nodes":[],"categories_segments":[],"categories_sizes":[],"default_left":[0,0,0,0,0,0,0],"id":43,"left_children":[1,3,-1,-1,5,-1,-1],"loss_changes":[3.665631E1,1.680153E1,0E0,0E0,7.840927E0,0E0,0E0],"parents":[2147483647,0,0,1,1,4,4],"right_children":[2,4,-1,-1,6,-1,-1],"split_conditions":[5.9870655E1,6.9E1,-1.5203506E-1,-1.4202327E-1,2.7022692E1,2.9378313E-1,-1.2291252E-1],"split_indices":[6,0,0,0,3,0,0],"split_type":[0,0,0,0,0,0,0],"sum_hessian":[1.2646556E2,5.5510406E1,7.0955154E1,1.1546288E1,4.396412E1,3.9999325E1,3.964796E0],"tree_param":{"num_deleted":"0","num_feature":"7","num_nodes":"7","size_leaf_vector":"1"}},{"base_weights":[-3.2989364E-2,-1.5103471E-1,7.079038E-1,-1.15320206E-1,2.4092348E-1],"categories":[],"categories_nodes":[],"categories_segments":[],"categories_sizes":[],"default_left":[0,0,0,0,0],"id":44,"left_children":[1,-1,3,-1,-1],"loss_changes":[3.7892323E1,0E0,4.6998634E0,0E0,0E0],"parents":[2147483647,0,0,2,2],"right_children":[2,-1,4,-1,-1],"split_conditions":[1.2E2,-1.5103471E-1,8.404404E1,-1.15320206E-1,2.4092348E-1],"split_indices":[1,0,4,0,0],"split_type":[0,0,0,0,0],"sum_hessian":[1.0668847E2,6.544931E1,4.1239162E1,3.0616856E0,3.817748E1],"tree_param":{"num_deleted":"0","num_feature":"7","num_nodes":"5","size_leaf_vector":"1"}},{"base_weights":[-3.4232024E-2,-1.506045E-1,4.6461883E-1,-1.4270477E-1,2.4031056E-1],"categories":[],"categories_nodes":[],"categories_segments":[],"categories_sizes":[],"default_left":[0,0,0,0,0],"id":45,"left_children":[1,-1,3,-1,-1],"loss_changes":[2.5355412E1,0E0,1.7025753E1,0E0,0E0],"parents":[2147483647,0,0,2,2],"right_children":[2,-1,4,-1,-1],"split_conditions":[7E1,-1.506045E-1,6.9E1,-1.4270477E-1,2.4031056E-1],"split_indices":[1,0,0,0,0],"split_type":[0,0,0,0,0],"sum_hessian":[1.0665691E2,5.5039177E1,5.1617737E1,1.3492242E1,3.8125496E1],"tree_param":{"num_deleted":"0","num_feature":"7","num_nodes":"5","size_leaf_vector":"1"}},{"base_weights":[1.429315E-3,3.6553058E-1,-1.4995676E-1,-1.437629E-1,6.455436E-1,8.015463E-1,-1.3087277E-1,-1.1032984E-1,8.8661045E-1,-7.939377E-2,9.252418E-1,2.5269338E-1,4.490551E-1],"categories":[],"categories_nodes":[],"categories_segments":[],"categories_sizes":[],"default_left":[0,0,0,0,0,0,0,0,0,0,0,0,0],"id":46,"left_children":[1,3,-1,-1,5,7,-1,-1,9,-1,11,-1,-1],"loss_changes":[1.977011E1,1.5150327E1,0E0,0E0,8.374012E0,4.4945297E0,0E0,0E0,1.9953575E0,0E0,5.5493927E-1,0E0,0E0],"parents":[2147483647,0,0,1,1,4,4,5,5,8,8,10,10],"right_children":[2,4,-1,-1,6,8,-1,-1,10,-1,12,-1,-1],"split_conditions":[7.582271E1,5.9870655E1,-1.4995676E-1,-1.437629E-1,7.095706E1,5.9966694E1,-1.3087277E-1,-1.1032984E-1,5.5E1,-7.939377E-2,2.5E1,2.5269338E-1,4.490551E-1],"split_indices":[6,6,0,0,4,4,0,0,1,0,2,0,0],"split_type":[0,0,0,0,0,0,0,0,0,0,0,0,0],"sum_hessian":[1.0631729E2,6.1742397E1,4.457489E1,1.5193979E1,4.654842E1,4.090817E1,5.64025E0,2.5487702E0,3.8359398E1,1.0554454E0,3.730395E1,3.473769E1,2.5662644E0],"tree_param":{"num_deleted":"0","num_feature":"7","num_nodes":"13","size_leaf_vector":"1"}},{"base_weights":[-3.3071857E-2,7.683345E-1,-1.5108356E-1,-7.8568555E-2,2.4078774E-1],"categories":[],"categories_nodes":[],"categories_segments":[],"categories_sizes":[],"default_left":[0,0,0,0,0],"id":47,"left_children":[1,3,-1,-1,-1],"loss_changes":[4.0977158E1,1.6309433E0,0E0,0E0,0E0],"parents":[2147483647,0,0,1,1],"right_children":[2,4,-1,-1,-1],"split_conditions":[2.0396597E1,2.6E1,-1.5108356E-1,-7.8568555E-2,2.4078774E-1],"split_indices":[4,2,0,0,0],"split_type":[0,0,0,0,0],"sum_hessian":[1.0663959E2,3.9215805E1,6.742378E1,1.0494449E0,3.816636E1],"tree_param":{"num_deleted":"0","num_feature":"7","num_nodes":"5","size_leaf_vector":"1"}},{"base_weights":[2.4106488E-2,-4.849905E-1,5.857588E-1,7.1242936E-2,-1.506371E-1,-1.3992687E-1,8.632226E-1,2.7698E-1,-9.775527E-2],"categories":[],"categories_nodes":[],"categories_segments":[],"categories_sizes":[],"default_left":[0,0,0,0,0,0,0,0,0],"id":48,"left_children":[1,3,5,-1,-1,-1,7,-1,-1],"loss_changes":[3.1373838E1,8.319788E-1,1.5627287E1,0E0,0E0,0E0,3.2722397E0,0E0,0E0],"parents":[2147483647,0,0,1,1,2,2,6,6],"right_children":[2,4,6,-1,-1,-1,8,-1,-1],"split_conditions":[9.071037E1,9E0,1.2825687E2,7.1242936E-2,-1.506371E-1,-1.3992687E-1,3.1E1,2.7698E-1,-9.775527E-2],"split_indices":[4,1,6,0,0,0,1,0,0],"split_type":[0,0,0,0,0,0,0,0,0],"sum_hessian":[1.0772994E2,5.6580406E1,5.1149536E1,1.0127857E0,5.556762E1,1.0531519E1,4.0618015E1,3.8878338E1,1.7396795E0],"tree_param":{"num_deleted":"0","num_feature":"7","num_nodes":"9","size_leaf_vector":"1"}},{"base_weights":[-2.7532402E-2,-1.5043917E-1,4.1253898E-1,7.856691E-1,-1.4437464E-1,3.0396601E-2,2.4515307E-1],"categories":[],"categories_nodes":[],"categories_segments":[],"categories_sizes":[],"default_left":[0,0,0,0,0,0,0],"id":49,"left_children":[1,-1,3,5,-1,-1,-1],"loss_changes":[2.2740002E1,0E0,1.9244026E1,7.859211E-1,0E0,0E0,0E0],"parents":[2147483647,0,0,2,2,3,3],"right_children":[2,-1,4,6,-1,-1,-1],"split_conditions":[8E1,-1.5043917E-1,7.095706E1,1.15383E2,-1.4437464E-1,3.0396601E-2,2.4515307E-1],"split_indices":[0,0,4,6,0,0,0],"split_type":[0,0,0,0,0,0,0],"sum_hessian":[1.0703955E2,5.1469913E1,5.5569637E1,3.928872E1,1.6280918E1,1.914816E0,3.73739E1],"tree_param":{"num_deleted":"0","num_feature":"7","num_nodes":"7","size_leaf_vector":"1"}},{"base_weights":[3.594101E-2,-1.508574E-1,7.570584E-1,9.5619637E-1,-1.3208196E-1,2.3834689E-2,9.8185575E-1,1.4326303E0,2.699879E-1,5.5156565E-1,1.9290209E-1],"categories":[],"categories_nodes":[],"categories_segments":[],"categories_sizes":[],"default_left":[0,0,0,0,0,0,0,0,0,0,0],"id":50,"left_children":[1,-1,3,5,-1,-1,7,9,-1,-1,-1],"loss_changes":[4.2260002E1,0E0,1.15067215E1,8.258972E-1,0E0,0E0,1.485405E-1,1.9563198E-1,0E0,0E0,0E0],"parents":[2147483647,0,0,2,2,3,3,6,6,7,7],"right_children":[2,-1,4,6,-1,-1,8,10,-1,-1,-1],"split_conditions":[1E2,-1.508574E-1,2.6E1,7.51464E1,-1.3208196E-1,2.3834689E-2,7.605522E1,1.21E2,2.699879E-1,5.5156565E-1,1.9290209E-1],"split_indices":[0,0,2,4,0,0,4,0,0,0,0],"split_type":[0,0,0,0,0,0,0,0,0,0,0],"sum_hessian":[1.067871E2,6.129319E1,4.5493908E1,3.9179108E1,6.314803E0,1.2305088E0,3.7948597E1,3.298674E0,3.4649925E1,1.3013154E0,1.9973586E0],"tree_param":{"num_deleted":"0","num_feature":"7","num_nodes":"11","size_leaf_vector":"1"}},{"base_weights":[-3.3244792E-2,-1.5103471E-1,7.074917E-1,2.4078794E-1,-1.15308106E-1],"categories":[],"categories_nodes":[],"categories_segments":[],"categories_sizes":[],"default_left":[0,0,0,0,0],"id":51,"left_children":[1,-1,3,-1,-1],"loss_changes":[3.7859055E1,0E0,4.6945934E0,0E0,0E0],"parents":[2147483647,0,0,2,2],"right_children":[2,-1,4,-1,-1],"split_conditions":[1.2E2,-1.5103471E-1,8.404404E1,2.4078794E-1,-1.15308106E-1],"split_indices":[1,0,4,0,0],"split_type":[0,0,0,0,0],"sum_hessian":[1.06674835E2,6.544931E1,4.122553E1,3.8165043E1,3.060484E0],"tree_param":{"num_deleted":"0","num_feature":"7","num_nodes":"5","size_leaf_vector":"1"}},{"base_weights":[2.1594351E-2,-1.5055677E-1,5.70061E-1,-1.326573E-1,7.099717E-1,-1.3457839E-1,7.835735E-1,-1.16384506E-1,8.561247E-1,9.1529197E-1,-9.875291E-2,-8.495175E-2,2.859249E-1],"categories":[],"categories_nodes":[],"categories_segments":[],"categories_sizes":[],"default_left":[0,0,0,0,0,0,0,0,0,0,0,0,0],"id":52,"left_children":[1,-1,3,-1,5,-1,7,-1,9,11,-1,-1,-1],"loss_changes":[3.216094E1,0E0,8.05875E0,0E0,4.4811287E0,0E0,4.2334003E0,0E0,3.3544369E0,2.1598701E0,0E0,0E0,0E0],"parents":[2147483647,0,0,2,2,4,4,6,6,8,8,9,9],"right_children":[2,-1,4,-1,6,-1,8,-1,10,12,-1,-1,-1],"split_conditions":[1.4922203E2,-1.5055677E-1,5.9E1,-1.326573E-1,2.3093481E1,-1.3457839E-1,6.940732E1,-1.16384506E-1,2.0008827E2,5.9511776E0,-9.875291E-2,-8.495175E-2,2.859249E-1],"split_indices":[6,0,0,0,3,0,4,0,6,5,0,0,0],"split_type":[0,0,0,0,0,0,0,0,0,0,0,0,0],"sum_hessian":[1.1002543E2,5.6340084E1,5.368534E1,6.256818E0,4.7428524E1,2.5287385E0,4.4899784E1,2.3649223E0,4.2534863E1,4.0729546E1,1.805319E0,1.0465729E0,3.9682972E1],"tree_param":{"num_deleted":"0","num_feature":"7","num_nodes":"13","size_leaf_vector":"1"}},{"base_weights":[-1.9082071E-2,7.5197405E-1,-4.889849E-1,2.5520465E-1,-1.153225E-1,-1.42832E-1,-1.510136E-1,8.3680406E-2,-1.3964781E-1],"categories":[],"categories_nodes":[],"categories_segments":[],"categories_sizes":[],"default_left":[0,0,0,0,0,0,0,0,0],"id":53,"left_children":[1,3,5,-1,-1,7,-1,-1,-1],"loss_changes":[4.037619E1,5.061352E0,2.7296638E-1,0E0,0E0,6.9588256E-1,0E0,0E0,0E0],"parents":[2147483647,0,0,1,1,2,2,5,5],"right_children":[2,4,6,-1,-1,8,-1,-1,-1],"split_conditions":[2.4938963E1,2.6E1,3.413308E1,2.5520465E-1,-1.153225E-1,2.1032001E1,-1.510136E-1,8.3680406E-2,-1.3964781E-1],"split_indices":[4,2,4,0,0,3,0,0,0],"split_type":[0,0,0,0,0,0,0,0,0],"sum_hessian":[1.0942262E2,4.1206787E1,6.8215836E1,3.814487E1,3.0619178E0,3.1593854E0,6.505645E1,1.4281251E0,1.7312603E0],"tree_param":{"num_deleted":"0","num_feature":"7","num_nodes":"9","size_leaf_vector":"1"}},{"base_weights":[2.0440046E-2,6.1365443E-1,-1.5072379E-1,8.765721E-1,-1.4759797E-1,-1.0866421E-1,9.552464E-1,3.7340287E-2,9.7794855E-1,4.4394007E-1,2.6145494E-1],"categories":[],"categories_nodes":[],"categories_segments":[],"categories_sizes":[],"default_left":[0,0,0,0,0,0,0,0,0,0,0],"id":54,"left_children":[1,3,-1,5,-1,-1,7,-1,9,-1,-1],"loss_changes":[3.4452343E1,1.5553776E1,0E0,4.4771194E0,0E0,0E0,6.3516617E-1,0E0,7.890549E-1,0E0,0E0],"parents":[2147483647,0,0,1,1,3,3,6,6,8,8],"right_children":[2,4,-1,6,-1,-1,8,-1,10,-1,-1],"split_conditions":[5.521607E1,6.971184E1,-1.5072379E-1,5.9966694E1,-1.4759797E-1,-1.0866421E-1,5.6E1,3.7340287E-2,6E1,4.4394007E-1,2.6145494E-1],"split_indices":[6,4,0,4,0,0,1,0,1,0,0],"split_type":[0,0,0,0,0,0,0,0,0,0,0],"sum_hessian":[1.0908392E2,5.1022038E1,5.8061882E1,4.138748E1,9.634556E0,2.256305E0,3.9131176E1,1.2133036E0,3.7917873E1,4.3767595E0,3.3541115E1],"tree_param":{"num_deleted":"0","num_feature":"7","num_nodes":"11","size_leaf_vector":"1"}},{"base_weights":[-2.5568338E-2,-1.5003967E-1,3.215739E-1,6.941992E-1,-1.4572753E-1,8.104595E-1,-1.2200271E-1,2.4913384E-1,1.3809805E-2],"categories":[],"categories_nodes":[],"categories_segments":[],"categories_sizes":[],"default_left":[0,0,0,0,0,0,0,0,0],"id":55,"left_children":[1,-1,3,5,-1,7,-1,-1,-1],"loss_changes":[1.8003872E1,0E0,1.9338148E1,5.913309E0,0E0,5.6975174E-1,0E0,0E0,0E0],"parents":[2147483647,0,0,2,2,3,3,5,5],"right_children":[2,-1,4,6,-1,8,-1,-1,-1],"split_conditions":[6E1,-1.5003967E-1,2.6E1,1.01E2,-1.4572753E-1,6.9708595E0,-1.2200271E-1,2.4913384E-1,1.3809805E-2],"split_indices":[0,0,2,0,0,5,0,0,0],"split_type":[0,0,0,0,0,0,0,0,0],"sum_hessian":[1.07309555E2,4.5148365E1,6.2161186E1,4.2626842E1,1.9534344E1,3.8793747E1,3.8330956E0,3.772113E1,1.0726178E0],"tree_param":{"num_deleted":"0","num_feature":"7","num_nodes":"9","size_leaf_vector":"1"}},{"base_weights":[-1.1298591E-2,5.0974643E-1,-1.5061907E-1,7.6426023E-1,-1.4048553E-1,-1.4990327E-1,8.5689765E-1,2.6806104E-1,-7.893162E-2],"categories":[],"categories_nodes":[],"categories_segments":[],"categories_sizes":[],"default_left":[0,0,0,0,0,0,0,0,0],"id":56,"left_children":[1,3,-1,5,-1,-1,7,-1,-1],"loss_changes":[2.8471762E1,1.38038225E1,0E0,5.491331E0,0E0,0E0,1.9035225E0,0E0,0E0],"parents":[2147483647,0,0,1,1,3,3,6,6],"right_children":[2,4,-1,6,-1,-1,8,-1,-1],"split_conditions":[5.5187923E1,4.1E1,-1.5061907E-1,2.5E1,-1.4048553E-1,-1.4990327E-1,4.1E1,2.6806104E-1,-7.893162E-2],"split_indices":[4,1,0,2,0,0,0,0,0],"split_type":[0,0,0,0,0,0,0,0,0],"sum_hessian":[1.0934284E2,5.301653E1,5.632631E1,4.2242348E1,1.0774184E1,2.5845835E0,3.9657764E1,3.8597317E1,1.060447E0],"tree_param":{"num_deleted":"0","num_feature":"7","num_nodes":"9","size_leaf_vector":"1"}},{"base_weights":[8.368979E-2,5.399405E-1,-1.500696E-1,9.0451825E-1,-1.4455573E-1,1.0583177E0,-1.257518E-1,-1.1121508E-1,3.3909836E-1],"categories":[],"categories_nodes":[],"categories_segments":[],"categories_sizes":[],"default_left":[0,0,0,0,0,0,0,0,0],"id":57,"left_children":[1,3,-1,5,-1,7,-1,-1,-1],"loss_changes":[2.9170166E1,2.3300219E1,0E0,9.723774E0,0E0,4.6507607E0,0E0,0E0,0E0],"parents":[2147483647,0,0,1,1,3,3,5,5],"right_children":[2,4,-1,6,-1,8,-1,-1,-1],"split_conditions":[6.506602E1,7.462069E1,-1.500696E-1,6.1E1,-1.4455573E-1,2.355882E1,-1.257518E-1,-1.1121508E-1,3.3909836E-1],"split_indices":[4,6,0,1,0,3,0,0,0],"split_type":[0,0,0,0,0,0,0,0,0],"sum_hessian":[1.0747776E2,6.0377087E1,4.710067E1,4.458415E1,1.579294E1,4.012277E1,4.4613795E0,1.7258228E0,3.8396946E1],"tree_param":{"num_deleted":"0","num_feature":"7","num_nodes":"9","size_leaf_vector":"1"}},{"base_weights":[-3.0029304E-2,4.8120737E-1,-1.5064439E-1,-1.3753684E-1,6.3669795E-1,-1.203351E-1,7.367604E-1,-1.0413288E-1,8.023723E-1,2.4438149E-1,7.745785E-2],"categories":[],"categories_nodes":[],"categories_segments":[],"categories_sizes":[],"default_left":[0,0,0,0,0,0,0,0,0,0,0],"id":58,"left_children":[1,3,-1,-1,5,-1,7,-1,9,-1,-1],"loss_changes":[2.6481129E1,7.992551E0,0E0,0E0,5.0351257E0,0E0,3.2638721E0,0E0,5.5181503E-2,0E0,0E0],"parents":[2147483647,0,0,1,1,4,4,6,6,8,8],"right_children":[2,4,-1,-1,6,-1,8,-1,10,-1,-1],"split_conditions":[6.0745834E1,2.693142E1,-1.5064439E-1,-1.3753684E-1,3.537493E1,-1.203351E-1,6.971184E1,-1.0413288E-1,8.9901474E1,2.4438149E-1,7.745785E-2],"split_indices":[6,3,0,0,6,0,4,0,4,0,0],"split_type":[0,0,0,0,0,0,0,0,0,0,0],"sum_hessian":[1.077132E2,5.1704933E1,5.6008266E1,7.064452E0,4.4640484E1,3.661011E0,4.097947E1,2.0942E0,3.8885273E1,3.754437E1,1.3409014E0],"tree_param":{"num_deleted":"0","num_feature":"7","num_nodes":"11","size_leaf_vector":"1"}},{"base_weights":[-2.459292E-2,7.82392E-1,-1.5109843E-1,-1.21154994E-1,2.4916072E-1],"categories":[],"categories_nodes":[],"categories_segments":[],"categories_sizes":[],"default_left":[0,0,0,0,0],"id":59,"left_children":[1,3,-1,-1,-1],"loss_changes":[4.260739E1,2.6807156E0,0E0,0E0,0E0],"parents":[2147483647,0,0,1,1],"right_children":[2,4,-1,-1,-1],"split_conditions":[3.2678917E1,4.1E1,-1.5109843E-1,-1.21154994E-1,2.4916072E-1],"split_indices":[6,0,0,0,0],"split_type":[0,0,0,0,0],"sum_hessian":[1.0819095E2,4.0066414E1,6.8124535E1,1.2745116E0,3.87919E1],"tree_param":{"num_deleted":"0","num_feature":"7","num_nodes":"5","size_leaf_vector":"1"}},{"base_weights":[-6.1405976E-3,7.8955233E-1,-1.5100303E-1,8.889467E-1,-1.1545199E-1,2.430453E-1,4.2634216E-1],"categories":[],"categories_nodes":[],"categories_segments":[],"categories_sizes":[],"default_left":[0,0,0,0,0,0,0],"id":60,"left_children":[1,3,-1,5,-1,-1,-1],"loss_changes":[4.284606E1,5.204029E0,0E0,4.7168732E-1,0E0,0E0,0E0],"parents":[2147483647,0,0,1,1,3,3],"right_children":[2,4,-1,6,-1,-1,-1],"split_conditions":[1.6E1,3.1E1,-1.5100303E-1,1.5E1,-1.1545199E-1,2.430453E-1,4.2634216E-1],"split_indices":[2,1,0,2,0,0,0],"split_type":[0,0,0,0,0,0,0],"sum_hessian":[1.0629632E2,4.0651752E1,6.564457E1,3.7703762E1,2.9479902E0,3.5038334E1,2.6654294E0],"tree_param":{"num_deleted":"0","num_feature":"7","num_nodes":"7","size_leaf_vector":"1"}},{"base_weights":[2.4843587E-2,-1.5056728E-1,5.58483E-1,-1.4062916E-1,8.3342457E-1,2.8069365E-1,-1.15307376E-1],"categories":[],"categories_nodes":[],"categories_segments":[],"categories_sizes":[],"default_left":[0,0,0,0,0,0,0],"id":61,"left_children":[1,-1,3,-1,5,-1,-1],"loss_changes":[3.0799263E1,0E0,1.5757099E1,0E0,5.7472267E0,0E0,0E0],"parents":[2147483647,0,0,2,2,4,4],"right_children":[2,-1,4,-1,6,-1,-1],"split_conditions":[9.002575E1,-1.5056728E-1,3.1E1,-1.4062916E-1,7.1E1,2.8069365E-1,-1.15307376E-1],"split_indices":[4,0,1,0,1,0,0],"split_type":[0,0,0,0,0,0,0],"sum_hessian":[1.0757508E2,5.4167736E1,5.3407345E1,1.1127481E1,4.2279865E1,3.9219456E1,3.0604084E0],"tree_param":{"num_deleted":"0","num_feature":"7","num_nodes":"7","size_leaf_vector":"1"}},{"base_weights":[1.00654855E-1,5.231371E-1,-4.6353543E-1,-1.4748041E-1,8.826037E-1,1.0168448E-1,-1.4982711E-1,-1.3249873E-1,1.1011382E0,-1.1288335E-1,1.2197654E0,3.3176214E-1,1.653176E0,5.8691007E-1,1.7331544E-1],"categories":[],"categories_nodes":[],"categories_segments":[],"categories_sizes":[],"default_left":[0,0,0,0,0,0,0,0,0,0,0,0,0,0,0],"id":62,"left_children":[1,3,5,-1,7,-1,-1,-1,9,-1,11,-1,13,-1,-1],"loss_changes":[2.6015303E1,2.315767E1,1.5179205E0,0E0,1.3902542E1,0E0,0E0,0E0,7.483219E0,0E0,1.4751434E-2,0E0,7.4427986E-1,0E0,0E0],"parents":[2147483647,0,0,1,1,2,2,4,4,8,8,10,10,12,12],"right_children":[2,4,6,-1,8,-1,-1,-1,10,-1,12,-1,14,-1,-1],"split_conditions":[6.740461E1,9.131256E1,5.316876E0,-1.4748041E-1,5.5E1,1.0168448E-1,-1.4982711E-1,-1.3249873E-1,2.4938963E1,-1.1288335E-1,5.884016E1,3.3176214E-1,3.8E1,5.8691007E-1,1.7331544E-1],"split_indices":[4,6,5,0,1,0,0,0,4,0,4,0,0,0,0],"split_type":[0,0,0,0,0,0,0,0,0,0,0,0,0,0,0],"sum_hessian":[1.0712539E2,6.1297096E1,4.5828297E1,1.5938034E1,4.5359062E1,1.6002871E0,4.422801E1,6.2803917E0,3.907867E1,2.743122E0,3.633555E1,3.1586744E1,4.748804E0,3.0654864E0,1.6833175E0],"tree_param":{"num_deleted":"0","num_feature":"7","num_nodes":"15","size_leaf_vector":"1"}},{"base_weights":[-3.1451155E-2,4.1949794E-1,-1.5049273E-1,6.981708E-1,-1.4212085E-1,-1.12932794E-1,7.8283143E-1,2.4624537E-1,-8.1565075E-2],"categories":[],"categories_nodes":[],"categories_segments":[],"categories_sizes":[],"default_left":[0,0,0,0,0,0,0,0,0],"id":63,"left_children":[1,3,-1,5,-1,-1,7,-1,-1],"loss_changes":[2.3041616E1,1.4147846E1,0E0,4.180603E0,0E0,0E0,1.8224888E0,0E0,0E0],"parents":[2147483647,0,0,1,1,3,3,6,6],"right_children":[2,4,-1,6,-1,-1,8,-1,-1],"split_conditions":[3.1E1,2.4982874E1,-1.5049273E-1,3.5E1,-1.4212085E-1,-1.12932794E-1,4.1E1,2.4624537E-1,-8.1565075E-2],"split_indices":[1,3,0,2,0,0,0,0,0],"split_type":[0,0,0,0,0,0,0,0,0],"sum_hessian":[1.06677826E2,5.4508167E1,5.2169655E1,4.1712883E1,1.2795284E1,2.7945588E0,3.8918327E1,3.777943E1,1.1388948E0],"tree_param":{"num_deleted":"0","num_feature":"7","num_nodes":"9","size_leaf_vector":"1"}},{"base_weights":[2.9173603E-2,-1.5086539E-1,7.5488096E-1,-1.1772355E-1,8.49769E-1,-9.680549E-2,9.053075E-1,2.7714145E-1,3.0242594E-2],"categories":[],"categories_nodes":[],"categories_segments":[],"categories_sizes":[],"default_left":[0,0,0,0,0,0,0,0,0],"id":64,"left_children":[1,-1,3,-1,5,-1,7,-1,-1],"loss_changes":[4.2588245E1,0E0,5.411127E0,0E0,3.1178608E0,0E0,5.2734375E-1,0E0,0E0],"parents":[2147483647,0,0,2,2,4,4,6,6],"right_children":[2,-1,4,-1,6,-1,8,-1,-1],"split_conditions":[1.8244824E2,-1.5086539E-1,5.9E1,-1.1772355E-1,8.0031E1,-9.680549E-2,8.4884575E1,2.7714145E-1,3.0242594E-2],"split_indices":[6,0,0,0,4,0,4,0,0],"split_type":[0,0,0,0,0,0,0,0,0],"sum_hessian":[1.0831518E2,6.2673E1,4.5642178E1,3.2470088E0,4.239517E1,1.6998596E0,4.069531E1,3.963569E1,1.0596186E0],"tree_param":{"num_deleted":"0","num_feature":"7","num_nodes":"9","size_leaf_vector":"1"}},{"base_weights":[-3.4063317E-2,4.8597354E-1,-1.5065354E-1,-1.3844427E-1,7.0332164E-1,2.407906E-1,-1.1671228E-1],"categories":[],"categories_nodes":[],"categories_segments":[],"categories_sizes":[],"default_left":[0,0,0,0,0,0,0],"id":65,"left_children":[1,3,-1,-1,5,-1,-1],"loss_changes":[2.650092E1,1.0951246E1,0E0,0E0,4.908947E0,0E0,0E0],"parents":[2147483647,0,0,1,1,4,4],"right_children":[2,4,-1,-1,6,-1,-1],"split_conditions":[5.9870655E1,6.9E1,-1.5065354E-1,-1.3844427E-1,2.7022692E1,2.407906E-1,-1.1671228E-1],"split_indices":[6,0,0,0,3,0,0],"split_type":[0,0,0,0,0,0,0],"sum_hessian":[1.0685897E2,5.0604E1,5.6254974E1,9.232938E0,4.137106E1,3.8166344E1,3.2047176E0],"tree_param":{"num_deleted":"0","num_feature":"7","num_nodes":"7","size_leaf_vector":"1"}},{"base_weights":[-3.373721E-2,-1.4975333E-1,6.199491E-1,-1.0839914E-1,2.0984131E-1],"categories":[],"categories_nodes":[],"categories_segments":[],"categories_sizes":[],"default_left":[0,0,0,0,0],"id":66,"left_children":[1,-1,3,-1,-1],"loss_changes":[2.7357132E1,0E0,3.1726465E0,0E0,0E0],"parents":[2147483647,0,0,2,2],"right_children":[2,-1,4,-1,-1],"split_conditions":[1.2E2,-1.4975333E-1,8.404404E1,-1.0839914E-1,2.0984131E-1],"split_indices":[1,0,4,0,0],"split_type":[0,0,0,0,0],"sum_hessian":[8.7898865E1,5.1480125E1,3.641874E1,2.4644377E0,3.39543E1],"tree_param":{"num_deleted":"0","num_feature":"7","num_nodes":"5","size_leaf_vector":"1"}},{"base_weights":[-3.5732724E-2,-1.4921916E-1,4.1464096E-1,-1.3953213E-1,2.0923232E-1],"categories":[],"categories_nodes":[],"categories_segments":[],"categories_sizes":[],"default_left":[0,0,0,0,0],"id":67,"left_children":[1,-1,3,-1,-1],"loss_changes":[1.8672367E1,0E0,1.16448555E1,0E0,0E0],"parents":[2147483647,0,0,2,2],"right_children":[2,-1,4,-1,-1],"split_conditions":[7E1,-1.4921916E-1,6.9E1,-1.3953213E-1,2.0923232E-1],"split_indices":[1,0,0,0,0],"split_type":[0,0,0,0,0],"sum_hessian":[8.781297E1,4.3311382E1,4.4501595E1,1.0668589E1,3.3833004E1],"tree_param":{"num_deleted":"0","num_feature":"7","num_nodes":"5","size_leaf_vector":"1"}},{"base_weights":[2.5794725E-3,3.2880396E-1,-1.4841302E-1,-1.4076844E-1,5.617144E-1,-1.2590776E-1,6.9057333E-1,7.452492E-1,-9.657751E-2,-8.3429076E-2,7.876929E-1,2.3999636E-1,6.594799E-2],"categories":[],"categories_nodes":[],"categories_segments":[],"categories_sizes":[],"default_left":[0,0,0,0,0,0,0,0,0,0,0,0,0],"id":68,"left_children":[1,3,-1,-1,5,-1,7,9,-1,-1,11,-1,-1],"loss_changes":[1.4769703E1,1.04813385E1,0E0,0E0,5.7288027E0,0E0,2.3654194E0,1.8143787E0,0E0,0E0,7.218933E-2,0E0,0E0],"parents":[2147483647,0,0,1,1,4,4,6,6,7,7,10,10],"right_children":[2,4,-1,-1,6,-1,8,10,-1,-1,12,-1,-1],"split_conditions":[7.582271E1,5.9870655E1,-1.4841302E-1,-1.4076844E-1,6.4969344E0,-1.2590776E-1,7.095706E1,5.9437534E1,-9.657751E-2,-8.3429076E-2,7.747775E0,2.3999636E-1,6.594799E-2],"split_indices":[6,6,0,0,5,0,4,4,0,0,5,0,0],"split_type":[0,0,0,0,0,0,0,0,0,0,0,0,0],"sum_hessian":[8.904019E1,5.3972656E1,3.5067535E1,1.19642725E1,4.2008385E1,4.6135993E0,3.7394783E1,3.5729317E1,1.6654671E0,1.2017666E0,3.452755E1,3.3395733E1,1.1318171E0],"tree_param":{"num_deleted":"0","num_feature":"7","num_nodes":"13","size_leaf_vector":"1"}},{"base_weights":[-3.3763416E-2,6.6945016E-1,-1.4981957E-1,1.8076468E-2,2.0956899E-1],"categories":[],"categories_nodes":[],"categories_segments":[],"categories_sizes":[],"default_left":[0,0,0,0,0],"id":69,"left_children":[1,3,-1,-1,-1],"loss_changes":[2.9417604E1,5.930271E-1,0E0,0E0,0E0],"parents":[2147483647,0,0,1,1],"right_children":[2,4,-1,-1,-1],"split_conditions":[2.0396597E1,6.0002484E0,-1.4981957E-1,1.8076468E-2,2.0956899E-1],"split_indices":[4,5,0,0,0],"split_type":[0,0,0,0,0],"sum_hessian":[8.781993E1,3.481052E1,5.300941E1,1.7277081E0,3.3082813E1],"tree_param":{"num_deleted":"0","num_feature":"7","num_nodes":"5","size_leaf_vector":"1"}},{"base_weights":[2.2479646E-2,-4.760889E-1,5.092138E-1,7.1249984E-2,-1.4925228E-1,-1.3618857E-1,7.294515E-1,2.3327018E-1,-9.039163E-2],"categories":[],"categories_nodes":[],"categories_segments":[],"categories_sizes":[],"default_left":[0,0,0,0,0,0,0,0,0],"id":70,"left_children":[1,3,5,-1,-1,-1,7,-1,-1],"loss_changes":[2.2454079E1,8.171358E-1,1.0258274E1,0E0,0E0,0E0,2.1423435E0,0E0,0E0],"parents":[2147483647,0,0,1,1,2,2,6,6],"right_children":[2,4,6,-1,-1,-1,8,-1,-1],"split_conditions":[9.071037E1,9E0,1.2825687E2,7.1249984E-2,-1.4925228E-1,-1.3618857E-1,3.1E1,2.3327018E-1,-9.039163E-2],"split_indices":[4,1,6,0,0,0,1,0,0],"split_type":[0,0,0,0,0,0,0,0,0],"sum_hessian":[9.053012E1,4.473219E1,4.579793E1,1.0095453E0,4.3722645E1,8.325666E0,3.7472263E1,3.6035748E1,1.4365172E0],"tree_param":{"num_deleted":"0","num_feature":"7","num_nodes":"9","size_leaf_vector":"1"}},{"base_weights":[-2.7068151E-2,-1.4899884E-1,3.700456E-1,6.816268E-1,-1.415836E-1,2.592236E-2,2.1313478E-1],"categories":[],"categories_nodes":[],"categories_segments":[],"categories_sizes":[],"default_left":[0,0,0,0,0,0,0],"id":71,"left_children":[1,-1,3,5,-1,-1,-1],"loss_changes":[1.6901098E1,0E0,1.32146015E1,5.6101036E-1,0E0,0E0,0E0],"parents":[2147483647,0,0,2,2,3,3],"right_children":[2,-1,4,6,-1,-1,-1],"split_conditions":[8E1,-1.4899884E-1,7.095706E1,1.15383E2,-1.415836E-1,2.592236E-2,2.1313478E-1],"split_indices":[0,0,4,6,0,0,0],"split_type":[0,0,0,0,0,0,0],"sum_hessian":[8.864547E1,4.0501263E1,4.8144203E1,3.527941E1,1.2864791E1,1.8140936E0,3.346532E1],"tree_param":{"num_deleted":"0","num_feature":"7","num_nodes":"7","size_leaf_vector":"1"}},{"base_weights":[3.7413895E-2,-1.4953412E-1,6.464921E-1,7.983303E-1,-1.2707216E-1,1.9789651E-2,2.4618833E-1],"categories":[],"categories_nodes":[],"categories_segments":[],"categories_sizes":[],"default_left":[0,0,0,0,0,0,0],"id":72,"left_children":[1,-1,3,5,-1,-1,-1],"loss_changes":[3.0137936E1,0E0,7.355625E0,5.6917953E-1,0E0,0E0,0E0],"parents":[2147483647,0,0,2,2,3,3],"right_children":[2,-1,4,6,-1,-1,-1],"split_conditions":[1E2,-1.4953412E-1,2.6E1,7.51464E1,-1.2707216E-1,1.9789651E-2,2.4618833E-1],"split_indices":[0,0,2,4,0,0,0],"split_type":[0,0,0,0,0,0,0],"sum_hessian":[9.035234E1,4.816175E1,4.219059E1,3.7170223E1,5.0203667E0,1.2151978E0,3.595503E1],"tree_param":{"num_deleted":"0","num_feature":"7","num_nodes":"7","size_leaf_vector":"1"}},{"base_weights":[-3.422894E-2,-1.4975333E-1,6.19411E-1,2.0967452E-1,-1.0837522E-1],"categories":[],"categories_nodes":[],"categories_segments":[],"categories_sizes":[],"default_left":[0,0,0,0,0],"id":73,"left_children":[1,-1,3,-1,-1],"loss_changes":[2.7315409E1,0E0,3.1670818E0,0E0,0E0],"parents":[2147483647,0,0,2,2],"right_children":[2,-1,4,-1,-1],"split_conditions":[1.2E2,-1.4975333E-1,8.404404E1,2.0967452E-1,-1.0837522E-1],"split_indices":[1,0,4,0,0],"split_type":[0,0,0,0,0],"sum_hessian":[8.786279E1,5.1480125E1,3.6382664E1,3.392001E1,2.4626555E0],"tree_param":{"num_deleted":"0","num_feature":"7","num_nodes":"5","size_leaf_vector":"1"}},{"base_weights":[2.23119E-2,-1.4918108E-1,4.863984E-1,-1.2775856E-1,5.9652364E-1,-1.2608424E-1,6.5780663E-1,-1.07728966E-1,7.143583E-1,7.596137E-1,-9.1116786E-2,3.5148375E-2,2.333649E-1],"categories":[],"categories_nodes":[],"categories_segments":[],"categories_sizes":[],"default_left":[0,0,0,0,0,0,0,0,0,0,0,0,0],"id":74,"left_children":[1,-1,3,-1,5,-1,7,-1,9,11,-1,-1,-1],"loss_changes":[2.3100977E1,0E0,5.335391E0,0E0,3.1146793E0,0E0,2.7493935E0,0E0,2.1381302E0,3.7744522E-1,0E0,0E0,0E0],"parents":[2147483647,0,0,2,2,4,4,6,6,8,8,9,9],"right_children":[2,-1,4,-1,6,-1,8,-1,10,12,-1,-1,-1],"split_conditions":[1.4922203E2,-1.4918108E-1,5.9E1,-1.2775856E-1,2.3093481E1,-1.2608424E-1,6.940732E1,-1.07728966E-1,2.0008827E2,6.0075083E0,-9.1116786E-2,3.5148375E-2,2.333649E-1],"split_indices":[6,0,0,0,3,0,4,0,6,5,0,0,0],"split_type":[0,0,0,0,0,0,0,0,0,0,0,0,0],"sum_hessian":[9.37995E1,4.422007E1,4.957943E1,5.031577E0,4.4547855E1,2.1992908E0,4.2348564E1,1.949162E0,4.0399403E1,3.8923084E1,1.4763176E0,1.2812138E0,3.764187E1],"tree_param":{"num_deleted":"0","num_feature":"7","num_nodes":"13","size_leaf_vector":"1"}},{"base_weights":[-1.9362621E-2,6.487418E-1,-4.8058215E-1,2.1862923E-1,-1.0839362E-1,-1.1576601E-1,-1.497294E-1,-1.2492991E-1,7.574354E-2],"categories":[],"categories_nodes":[],"categories_segments":[],"categories_sizes":[],"default_left":[0,0,0,0,0,0,0,0,0],"id":75,"left_children":[1,3,5,-1,-1,7,-1,-1,-1],"loss_changes":[2.8722692E1,3.341236E0,3.145504E-1,0E0,0E0,5.4407793E-1,0E0,0E0,0E0],"parents":[2147483647,0,0,1,1,2,2,5,5],"right_children":[2,4,6,-1,-1,8,-1,-1,-1],"split_conditions":[2.4938963E1,2.6E1,3.413308E1,2.1862923E-1,-1.0839362E-1,5.6236157E0,-1.497294E-1,-1.2492991E-1,7.574354E-2],"split_indices":[4,2,4,0,0,5,0,0,0],"split_type":[0,0,0,0,0,0,0,0,0],"sum_hessian":[9.120049E1,3.7080524E1,5.411997E1,3.4616497E1,2.464027E0,2.9644299E0,5.1155537E1,1.5599169E0,1.4045129E0],"tree_param":{"num_deleted":"0","num_feature":"7","num_nodes":"9","size_leaf_vector":"1"}},{"base_weights":[2.1429263E-2,5.285741E-1,-1.4937851E-1,7.3264503E-1,-1.4203654E-1,-1.01156935E-1,7.934322E-1,3.6172364E-2,2.4353002E-1],"categories":[],"categories_nodes":[],"categories_segments":[],"categories_sizes":[],"default_left":[0,0,0,0,0,0,0,0,0],"id":76,"left_children":[1,3,-1,5,-1,-1,7,-1,-1],"loss_changes":[2.4872738E1,1.0112651E1,0E0,2.8733673E0,0E0,0E0,3.735485E-1,0E0,0E0],"parents":[2147483647,0,0,1,1,3,3,6,6],"right_children":[2,4,-1,6,-1,-1,8,-1,-1],"split_conditions":[5.521607E1,6.971184E1,-1.4937851E-1,5.9966694E1,-1.4203654E-1,-1.01156935E-1,5.6E1,3.6172364E-2,2.4353002E-1],"split_indices":[6,4,0,4,0,0,1,0,0],"split_type":[0,0,0,0,0,0,0,0,0],"sum_hessian":[9.243403E1,4.67579E1,4.567613E1,3.9069862E1,7.688038E0,1.8560972E0,3.7213768E1,1.1880995E0,3.6025665E1],"tree_param":{"num_deleted":"0","num_feature":"7","num_nodes":"9","size_leaf_vector":"1"}},{"base_weights":[-2.4796296E-2,-1.484992E-1,2.9148766E-1,6.2044746E-1,-4.4953448E-1,2.1903226E-1,-1.2269882E-1,-1.7036408E-2,-1.431746E-1],"categories":[],"categories_nodes":[],"categories_segments":[],"categories_sizes":[],"default_left":[0,0,0,0,0,0,0,0,0],"id":77,"left_children":[1,-1,3,5,7,-1,-1,-1,-1],"loss_changes":[1.3518701E1,0E0,1.3538666E1,4.5987616E0,1.6123915E-1,0E0,0E0,0E0,0E0],"parents":[2147483647,0,0,2,2,3,3,4,4],"right_children":[2,-1,4,6,8,-1,-1,-1,-1],"split_conditions":[6E1,-1.484992E-1,7.3653465E1,1.0975714E2,7.5683395E1,2.1903226E-1,-1.2269882E-1,-1.7036408E-2,-1.431746E-1],"split_indices":[0,0,4,6,4,0,0,0,0],"split_type":[0,0,0,0,0,0,0,0,0],"sum_hessian":[8.893195E1,3.553664E1,5.339531E1,3.709192E1,1.630339E1,3.378391E1,3.3080096E0,1.2755947E0,1.5027797E1],"tree_param":{"num_deleted":"0","num_feature":"7","num_nodes":"9","size_leaf_vector":"1"}},{"base_weights":[-1.2454657E-2,4.475054E-1,-1.4925265E-1,6.560278E-1,-1.3681202E-1,-1.3409679E-1,7.3495376E-1,-4.680283E-3,2.2790635E-1],"categories":[],"categories_nodes":[],"categories_segments":[],"categories_sizes":[],"default_left":[0,0,0,0,0,0,0,0,0],"id":78,"left_children":[1,3,-1,5,-1,-1,7,-1,-1],"loss_changes":[2.0766573E1,9.303239E0,0E0,3.7445297E0,0E0,0E0,6.9867325E-1,0E0,0E0],"parents":[2147483647,0,0,1,1,3,3,6,6],"right_children":[2,4,-1,6,-1,-1,8,-1,-1],"split_conditions":[5.5187923E1,4.1E1,-1.4925265E-1,2.5E1,-1.3681202E-1,-1.3409679E-1,2.7197117E1,-4.680283E-3,2.2790635E-1],"split_indices":[4,1,0,2,0,0,3,0,0],"split_type":[0,0,0,0,0,0,0,0,0],"sum_hessian":[9.108169E1,4.678988E1,4.429181E1,3.8238945E1,8.550934E0,2.2420568E0,3.5996887E1,1.1601886E0,3.4836697E1],"tree_param":{"num_deleted":"0","num_feature":"7","num_nodes":"9","size_leaf_vector":"1"}},{"base_weights":[7.8983374E-2,4.6061644E-1,-1.4858294E-1,7.3225325E-1,-1.4159763E-1,8.40646E-1,-1.1969418E-1,-1.02109805E-1,8.9312327E-1,2.7868944E-1,4.777978E-1,1.8568742E-1,2.3913353E-3],"categories":[],"categories_nodes":[],"categories_segments":[],"categories_sizes":[],"default_left":[0,0,0,0,0,0,0,0,0,0,0,0,0],"id":79,"left_children":[1,3,-1,5,-1,7,-1,-1,9,-1,11,-1,-1],"loss_changes":[2.0850737E1,1.4797973E1,0E0,5.800823E0,0E0,2.8448505E0,0E0,0E0,1.4456558E-1,0E0,3.3988714E-1,0E0,0E0],"parents":[2147483647,0,0,1,1,3,3,5,5,8,8,10,10],"right_children":[2,4,-1,6,-1,8,-1,-1,10,-1,12,-1,-1],"split_conditions":[6.506602E1,7.462069E1,-1.4858294E-1,6.1E1,-1.4159763E-1,2.355882E1,-1.1969418E-1,-1.02109805E-1,3.8E1,2.7868944E-1,4.831219E1,1.8568742E-1,2.3913353E-3],"split_indices":[4,6,0,1,0,3,0,0,0,0,6,0,0],"split_type":[0,0,0,0,0,0,0,0,0,0,0,0,0],"sum_hessian":[9.3099884E1,5.6049343E1,3.7050545E1,4.357289E1,1.2476453E1,3.99973E1,3.5755925E0,1.4682405E0,3.8529057E1,3.4329773E1,4.199286E0,2.9850152E0,1.2142708E0],"tree_param":{"num_deleted":"0","num_feature":"7","num_nodes":"13","size_leaf_vector":"1"}},{"base_weights":[-3.174974E-2,4.2395902E-1,-1.4927763E-1,-1.3237058E-1,5.553181E-1,6.3977647E-1,-1.143608E-1,-1.0423347E-1,2.1267536E-1],"categories":[],"categories_nodes":[],"categories_segments":[],"categories_sizes":[],"default_left":[0,0,0,0,0,0,0,0,0],"id":80,"left_children":[1,3,-1,-1,5,7,-1,-1,-1],"loss_changes":[1.9369017E1,5.4910297E0,0E0,0E0,3.448679E0,2.8086357E0,0E0,0E0,0E0],"parents":[2147483647,0,0,1,1,4,4,5,5],"right_children":[2,4,-1,-1,6,8,-1,-1,-1],"split_conditions":[6.0745834E1,2.693142E1,-1.4927763E-1,-1.3237058E-1,2.6E1,6.971184E1,-1.143608E-1,-1.0423347E-1,2.1267536E-1],"split_indices":[6,3,0,0,2,4,0,0,0],"split_type":[0,0,0,0,0,0,0,0,0],"sum_hessian":[8.924541E1,4.5158836E1,4.4086575E1,5.641591E0,3.9517242E1,3.6538906E1,2.9783354E0,2.1281016E0,3.4410805E1],"tree_param":{"num_deleted":"0","num_feature":"7","num_nodes":"9","size_leaf_vector":"1"}},{"base_weights":[-2.478797E-2,6.744821E-1,-1.4984062E-1,-1.0679391E-1,2.1508029E-1],"categories":[],"categories_nodes":[],"categories_segments":[],"categories_sizes":[],"default_left":[0,0,0,0,0],"id":81,"left_children":[1,3,-1,-1,-1],"loss_changes":[3.04145E1,1.8766308E0,0E0,0E0,0E0],"parents":[2147483647,0,0,1,1],"right_children":[2,4,-1,-1,-1],"split_conditions":[3.2678917E1,4.1E1,-1.4984062E-1,-1.0679391E-1,2.1508029E-1],"split_indices":[6,0,0,0,0],"split_type":[0,0,0,0,0],"sum_hessian":[8.961433E1,3.606488E1,5.354945E1,1.1347647E0,3.4930115E1],"tree_param":{"num_deleted":"0","num_feature":"7","num_nodes":"5","size_leaf_vector":"1"}},{"base_weights":[-4.9435664E-3,6.79695E-1,-1.4972478E-1,2.2799905E-1,-1.0846875E-1],"categories":[],"categories_nodes":[],"categories_segments":[],"categories_sizes":[],"default_left":[0,0,0,0,0],"id":82,"left_children":[1,3,-1,-1,-1],"loss_changes":[3.0633955E1,3.4489384E0,0E0,0E0,0E0],"parents":[2147483647,0,0,1,1],"right_children":[2,4,-1,-1,-1],"split_conditions":[1.6E1,3.1E1,-1.4972478E-1,2.2799905E-1,-1.0846875E-1],"split_indices":[2,1,0,0,0],"split_type":[0,0,0,0,0],"sum_hessian":[8.854815E1,3.6961624E1,5.158652E1,3.4566013E1,2.3956127E0],"tree_param":{"num_deleted":"0","num_feature":"7","num_nodes":"5","size_leaf_vector":"1"}},{"base_weights":[2.3137255E-2,-1.4917344E-1,4.880819E-1,-1.370378E-1,7.075074E-1,2.3617417E-1,-1.0837445E-1],"categories":[],"categories_nodes":[],"categories_segments":[],"categories_sizes":[],"default_left":[0,0,0,0,0,0,0],"id":83,"left_children":[1,-1,3,-1,5,-1,-1],"loss_changes":[2.2370007E1,0E0,1.0441831E1,0E0,3.6932163E0,0E0,0E0],"parents":[2147483647,0,0,2,2,4,4],"right_children":[2,-1,4,-1,6,-1,-1],"split_conditions":[9.002575E1,-1.4917344E-1,3.1E1,-1.370378E-1,7.1E1,2.3617417E-1,-1.0837445E-1],"split_indices":[4,0,1,0,1,0,0],"split_type":[0,0,0,0,0,0,0],"sum_hessian":[9.04545E1,4.264985E1,4.7804646E1,8.805453E0,3.899919E1,3.65366E1,2.4625964E0],"tree_param":{"num_deleted":"0","num_feature":"7","num_nodes":"7","size_leaf_vector":"1"}},{"base_weights":[9.697063E-2,4.2750213E-1,-1.4843501E-1,-1.4527792E-1,7.1790016E-1,-1.2840343E-1,8.728879E-1,-1.0567521E-1,2.852483E-1],"categories":[],"categories_nodes":[],"categories_segments":[],"categories_sizes":[],"default_left":[0,0,0,0,0,0,0,0,0],"id":84,"left_children":[1,3,-1,-1,5,-1,7,-1,-1],"loss_changes":[1.8746334E1,1.6588184E1,0E0,0E0,8.707294E0,0E0,4.3131046E0,0E0,0E0],"parents":[2147483647,0,0,1,1,4,4,6,6],"right_children":[2,4,-1,-1,6,-1,8,-1,-1],"split_conditions":[6.971184E1,9.131256E1,-1.4843501E-1,-1.4527792E-1,5.5E1,-1.2840343E-1,2.4938963E1,-1.0567521E-1,2.852483E-1],"split_indices":[4,6,0,0,1,0,4,0,0],"split_type":[0,0,0,0,0,0,0,0,0],"sum_hessian":[9.3761986E1,6.033737E1,3.3424614E1,1.4414051E1,4.592332E1,5.2613816E0,4.0661938E1,2.2215614E0,3.8440376E1],"tree_param":{"num_deleted":"0","num_feature":"7","num_nodes":"9","size_leaf_vector":"1"}},{"base_weights":[-3.3135112E-2,3.7597767E-1,-1.4907144E-1,6.124446E-1,-1.387954E-1,-1.06057376E-1,6.8432367E-1,1.5022568E-2,2.1476598E-1],"categories":[],"categories_nodes":[],"categories_segments":[],"categories_sizes":[],"default_left":[0,0,0,0,0,0,0,0,0],"id":85,"left_children":[1,3,-1,5,-1,-1,7,-1,-1],"loss_changes":[1.7058697E1,9.765486E0,0E0,2.861536E0,0E0,0E0,6.7393875E-1,0E0,0E0],"parents":[2147483647,0,0,1,1,3,3,6,6],"right_children":[2,4,-1,6,-1,-1,8,-1,-1],"split_conditions":[3.1E1,2.4982874E1,-1.4907144E-1,3.5E1,-1.387954E-1,-1.06057376E-1,1.0264889E2,1.5022568E-2,2.1476598E-1],"split_indices":[1,3,0,2,0,0,6,0,0],"split_type":[0,0,0,0,0,0,0,0,0],"sum_hessian":[8.7923775E1,4.6815205E1,4.1108566E1,3.6728607E1,1.0086599E1,2.2723682E0,3.4456238E1,1.7560215E0,3.270022E1],"tree_param":{"num_deleted":"0","num_feature":"7","num_nodes":"9","size_leaf_vector":"1"}},{"base_weights":[3.070968E-2,-1.4955972E-1,6.339314E-1,-1.1132112E-1,7.0733595E-1,-8.9887254E-2,7.50596E-1,2.297323E-1,2.643732E-2],"categories":[],"categories_nodes":[],"categories_segments":[],"categories_sizes":[],"default_left":[0,0,0,0,0,0,0,0,0],"id":86,"left_children":[1,-1,3,-1,5,-1,7,-1,-1],"loss_changes":[3.0083735E1,0E0,3.5095959E0,0E0,2.0267582E0,0E0,3.341751E-1,0E0,0E0],"parents":[2147483647,0,0,2,2,4,4,6,6],"right_children":[2,-1,4,-1,6,-1,8,-1,-1],"split_conditions":[1.8244824E2,-1.4955972E-1,5.9E1,-1.1132112E-1,8.0031E1,-8.9887254E-2,8.4884575E1,2.297323E-1,2.643732E-2],"split_indices":[6,0,0,0,4,0,4,0,0],"split_type":[0,0,0,0,0,0,0,0,0],"sum_hessian":[9.2242516E1,4.922663E1,4.301588E1,2.651964E0,4.036392E1,1.4185417E0,3.8945374E1,3.7920616E1,1.02476E0],"tree_param":{"num_deleted":"0","num_feature":"7","num_nodes":"9","size_leaf_vector":"1"}},{"base_weights":[-3.5034224E-2,4.3251655E-1,-1.4928985E-1,-1.3441688E-1,6.165928E-1,2.098695E-1,-1.0988324E-1],"categories":[],"categories_nodes":[],"categories_segments":[],"categories_sizes":[],"default_left":[0,0,0,0,0,0,0],"id":87,"left_children":[1,3,-1,-1,5,-1,-1],"loss_changes":[1.9498447E1,7.550208E0,0E0,0E0,3.3174295E0,0E0,0E0],"parents":[2147483647,0,0,1,1,4,4],"right_children":[2,4,-1,-1,6,-1,-1],"split_conditions":[5.9870655E1,6.9E1,-1.4928985E-1,-1.3441688E-1,2.7022692E1,2.098695E-1,-1.0988324E-1],"split_indices":[6,0,0,0,3,0,0],"split_type":[0,0,0,0,0,0,0],"sum_hessian":[8.815512E1,4.387523E1,4.4279892E1,7.338012E0,3.6537216E1,3.395872E1,2.5784924E0],"tree_param":{"num_deleted":"0","num_feature":"7","num_nodes":"7","size_leaf_vector":"1"}},{"base_weights":[-3.444664E-2,-1.4843304E-1,5.617559E-1,-1.0091419E-1,1.8977068E-1],"categories":[],"categories_nodes":[],"categories_segments":[],"categories_sizes":[],"default_left":[0,0,0,0,0],"id":88,"left_children":[1,-1,3,-1,-1],"loss_changes":[2.0033806E1,0E0,2.2372522E0,0E0,0E0],"parents":[2147483647,0,0,2,2],"right_children":[2,-1,4,-1,-1],"split_conditions":[1.2E2,-1.4843304E-1,8.404404E1,-1.0091419E-1,1.8977068E-1],"split_indices":[1,0,4,0,0],"split_type":[0,0,0,0,0],"sum_hessian":[7.098346E1,4.0152046E1,3.0831419E1,1.9791496E0,2.8852268E1],"tree_param":{"num_deleted":"0","num_feature":"7","num_nodes":"5","size_leaf_vector":"1"}},{"base_weights":[-3.7378192E-2,-1.477666E-1,3.8029113E-1,-1.3584287E-1,1.891716E-1],"categories":[],"categories_nodes":[],"categories_segments":[],"categories_sizes":[],"default_left":[0,0,0,0,0],"id":89,"left_children":[1,-1,3,-1,-1],"loss_changes":[1.3845719E1,0E0,8.215056E0,0E0,0E0],"parents":[2147483647,0,0,2,2],"right_children":[2,-1,4,-1,-1],"split_conditions":[7E1,-1.477666E-1,6.9E1,-1.3584287E-1,1.891716E-1],"split_indices":[1,0,0,0,0],"split_type":[0,0,0,0,0],"sum_hessian":[7.0843414E1,3.3813774E1,3.7029636E1,8.3675785E0,2.8662058E1],"tree_param":{"num_deleted":"0","num_feature":"7","num_nodes":"5","size_leaf_vector":"1"}},{"base_weights":[2.5021054E-3,3.022337E-1,-1.4675422E-1,-1.3731147E-1,5.057049E-1,-1.2030471E-1,6.184396E-1,6.6670173E-1,-8.886556E-2,-2.2815518E-2,6.961718E-1,2.1491982E-1,3.6814302E-2],"categories":[],"categories_nodes":[],"categories_segments":[],"categories_sizes":[],"default_left":[0,0,0,0,0,0,0,0,0,0,0,0,0],"id":90,"left_children":[1,3,-1,-1,5,-1,7,9,-1,-1,11,-1,-1],"loss_changes":[1.1039599E1,7.426782E0,0E0,0E0,4.048607E0,0E0,1.6746473E0,7.5543594E-1,0E0,0E0,2.712927E-1,0E0,0E0],"parents":[2147483647,0,0,1,1,4,4,6,6,7,7,10,10],"right_children":[2,4,-1,-1,6,-1,8,10,-1,-1,12,-1,-1],"split_conditions":[7.582271E1,5.9870655E1,-1.4675422E-1,-1.3731147E-1,6.4969344E0,-1.2030471E-1,7.095706E1,2.5124176E1,-8.886556E-2,-2.2815518E-2,7.747775E0,2.1491982E-1,3.6814302E-2],"split_indices":[6,6,0,0,5,0,4,3,0,0,5,0,0],"split_type":[0,0,0,0,0,0,0,0,0,0,0,0,0],"sum_hessian":[7.290609E1,4.5533817E1,2.7372269E1,9.352809E0,3.618101E1,3.718236E0,3.2462772E1,3.1093225E1,1.3695478E0,1.1262784E0,2.9966948E1,2.8705166E1,1.2617807E0],"tree_param":{"num_deleted":"0","num_feature":"7","num_nodes":"13","size_leaf_vector":"1"}},{"base_weights":[-3.363747E-2,6.0351086E-1,-1.4852001E-1,1.6056888E-2,1.895342E-1],"categories":[],"categories_nodes":[],"categories_segments":[],"categories_sizes":[],"default_left":[0,0,0,0,0],"id":91,"left_children":[1,3,-1,-1,-1],"loss_changes":[2.1473272E1,4.4353676E-1,0E0,0E0,0E0],"parents":[2147483647,0,0,1,1],"right_children":[2,4,-1,-1,-1],"split_conditions":[2.0396597E1,6.0002484E0,-1.4852001E-1,1.6056888E-2,1.895342E-1],"split_indices":[4,5,0,0,0],"split_type":[0,0,0,0,0],"sum_hessian":[7.102237E1,2.9701784E1,4.1320583E1,1.5935011E0,2.8108284E1],"tree_param":{"num_deleted":"0","num_feature":"7","num_nodes":"5","size_leaf_vector":"1"}},{"base_weights":[2.161715E-2,-1.4766534E-1,4.4476518E-1,6.8220776E-1,-1.3615975E-1,2.1167205E-1,-8.26521E-3],"categories":[],"categories_nodes":[],"categories_segments":[],"categories_sizes":[],"default_left":[0,0,0,0,0,0,0],"id":92,"left_children":[1,-1,3,5,-1,-1,-1],"loss_changes":[1.6585783E1,0E0,9.229805E0,5.7446384E-1,0E0,0E0,0E0],"parents":[2147483647,0,0,2,2,3,3],"right_children":[2,-1,4,6,-1,-1,-1],"split_conditions":[1.3037971E2,-1.4766534E-1,3.1E1,6.469371E0,-1.3615975E-1,2.1167205E-1,-8.26521E-3],"split_indices":[6,0,1,5,0,0,0],"split_type":[0,0,0,0,0,0,0],"sum_hessian":[7.427477E1,3.346929E1,4.0805485E1,3.246752E1,8.337961E0,3.1438446E1,1.0290772E0],"tree_param":{"num_deleted":"0","num_feature":"7","num_nodes":"7","size_leaf_vector":"1"}},{"base_weights":[-2.58482E-2,-1.4747405E-1,3.4073716E-1,6.134966E-1,-1.3837896E-1,2.2407312E-2,1.9256301E-1],"categories":[],"categories_nodes":[],"categories_segments":[],"categories_sizes":[],"default_left":[0,0,0,0,0,0,0],"id":93,"left_children":[1,-1,3,5,-1,-1,-1],"loss_changes":[1.2646102E1,0E0,9.3587475E0,4.3202972E-1,0E0,0E0,0E0],"parents":[2147483647,0,0,2,2,3,3],"right_children":[2,-1,4,6,-1,-1,-1],"split_conditions":[8E1,-1.4747405E-1,7.095706E1,1.15383E2,-1.3837896E-1,2.2407312E-2,1.9256301E-1],"split_indices":[0,0,4,6,0,0,0],"split_type":[0,0,0,0,0,0,0],"sum_hessian":[7.208946E1,3.1600866E1,4.0488598E1,3.0388533E1,1.0100065E1,1.7022661E0,2.8686268E1],"tree_param":{"num_deleted":"0","num_feature":"7","num_nodes":"7","size_leaf_vector":"1"}},{"base_weights":[3.6060523E-2,-1.481604E-1,5.7406443E-1,7.007008E-1,-1.2137247E-1,1.6324721E-2,2.167567E-1],"categories":[],"categories_nodes":[],"categories_segments":[],"categories_sizes":[],"default_left":[0,0,0,0,0,0,0],"id":94,"left_children":[1,-1,3,5,-1,-1,-1],"loss_changes":[2.1790985E1,0E0,4.9799776E0,4.390564E-1,0E0,0E0,0E0],"parents":[2147483647,0,0,2,2,3,3],"right_children":[2,-1,4,6,-1,-1,-1],"split_conditions":[1E2,-1.481604E-1,2.6E1,7.51464E1,-1.2137247E-1,1.6324721E-2,2.167567E-1],"split_indices":[0,0,2,4,0,0,0],"split_type":[0,0,0,0,0,0,0],"sum_hessian":[7.4437386E1,3.754146E1,3.6895927E1,3.2920063E1,3.9758666E0,1.1893332E0,3.1730728E1],"tree_param":{"num_deleted":"0","num_feature":"7","num_nodes":"7","size_leaf_vector":"1"}},{"base_weights":[-3.523105E-2,-1.4843304E-1,5.611224E-1,1.8958884E-1,-1.0087939E-1],"categories":[],"categories_nodes":[],"categories_segments":[],"categories_sizes":[],"default_left":[0,0,0,0,0],"id":95,"left_children":[1,-1,3,-1,-1],"loss_changes":[1.998814E1,0E0,2.2321997E0,0E0,0E0],"parents":[2147483647,0,0,2,2],"right_children":[2,-1,4,-1,-1],"split_conditions":[1.2E2,-1.4843304E-1,8.404404E1,1.8958884E-1,-1.0087939E-1],"split_indices":[1,0,4,0,0],"split_type":[0,0,0,0,0],"sum_hessian":[7.092259E1,4.0152046E1,3.0770552E1,2.8793358E1,1.9771935E0],"tree_param":{"num_deleted":"0","num_feature":"7","num_nodes":"5","size_leaf_vector":"1"}},{"base_weights":[2.5007587E-2,-1.4773045E-1,4.2825186E-1,-1.2218261E-1,5.194079E-1,5.8374286E-1,-1.0804491E-1,-1.0761361E-1,6.250859E-1,6.653587E-1,-9.164289E-2,2.1478152E-1,7.679248E-2],"categories":[],"categories_nodes":[],"categories_segments":[],"categories_sizes":[],"default_left":[0,0,0,0,0,0,0,0,0,0,0,0,0],"id":96,"left_children":[1,-1,3,-1,5,7,-1,-1,9,11,-1,-1,-1],"loss_changes":[1.6853933E1,0E0,3.6665583E0,0E0,2.5495348E0,1.7400875E0,0E0,0E0,1.613636E0,5.7019424E-1,0E0,0E0,0E0],"parents":[2147483647,0,0,2,2,4,4,5,5,8,8,9,9],"right_children":[2,-1,4,-1,6,8,-1,-1,10,12,-1,-1,-1],"split_conditions":[1.4922203E2,-1.4773045E-1,3.5E1,-1.2218261E-1,2.0008827E2,2.2696577E1,-1.0804491E-1,-1.0761361E-1,2.7022692E1,9.2E1,-9.164289E-2,2.1478152E-1,7.679248E-2],"split_indices":[6,0,2,0,6,3,0,0,3,0,0,0,0],"split_type":[0,0,0,0,0,0,0,0,0,0,0,0,0],"sum_hessian":[7.8763214E1,3.44E1,4.4363213E1,4.022796E0,4.0340416E1,3.7904243E1,2.4361706E0,1.2702869E0,3.6633957E1,3.538745E1,1.2465059E0,3.0829615E1,4.557837E0],"tree_param":{"num_deleted":"0","num_feature":"7","num_nodes":"13","size_leaf_vector":"1"}},{"base_weights":[-1.8964224E-2,5.822787E-1,-4.7107816E-1,1.9571206E-1,-1.0103489E-1,-8.6362645E-2,-1.4840417E-1,7.374797E-2,-1.130468E-1],"categories":[],"categories_nodes":[],"categories_segments":[],"categories_sizes":[],"default_left":[0,0,0,0,0,0,0,0,0],"id":97,"left_children":[1,3,5,-1,-1,7,-1,-1,-1],"loss_changes":[2.0782644E1,2.3346195E0,3.5332108E-1,0E0,0E0,4.5279136E-1,0E0,0E0,0E0],"parents":[2147483647,0,0,1,1,2,2,5,5],"right_children":[2,4,6,-1,-1,8,-1,-1,-1],"split_conditions":[2.4938963E1,2.6E1,3.413308E1,1.9571206E-1,-1.0103489E-1,2.1032001E1,-1.4840417E-1,7.374797E-2,-1.130468E-1],"split_indices":[4,2,4,0,0,3,0,0,0],"split_type":[0,0,0,0,0,0,0,0,0],"sum_hessian":[7.44454E1,3.1829323E1,4.2616074E1,2.9843409E1,1.9859152E0,2.7326875E0,3.9883385E1,1.3464562E0,1.3862313E0],"tree_param":{"num_deleted":"0","num_feature":"7","num_nodes":"9","size_leaf_vector":"1"}},{"base_weights":[2.1395199E-2,4.732378E-1,-1.4797151E-1,6.445922E-1,-1.3613458E-1,-9.3885325E-2,6.9719005E-1,-2.7146531E-2,2.1908627E-1],"categories":[],"categories_nodes":[],"categories_segments":[],"categories_sizes":[],"default_left":[0,0,0,0,0,0,0,0,0],"id":98,"left_children":[1,3,-1,5,-1,-1,7,-1,-1],"loss_changes":[1.8213612E1,6.91391E0,0E0,2.0108604E0,0E0,0E0,9.537792E-1,0E0,0E0],"parents":[2147483647,0,0,1,1,3,3,6,6],"right_children":[2,4,-1,6,-1,-1,8,-1,-1],"split_conditions":[5.521607E1,6.971184E1,-1.4797151E-1,5.5E1,-1.3613458E-1,-9.3885325E-2,6.020017E1,-2.7146531E-2,2.1908627E-1],"split_indices":[6,4,0,1,0,0,4,0,0],"split_type":[0,0,0,0,0,0,0,0,0],"sum_hessian":[7.632306E1,4.0683678E1,3.5639385E1,3.4593857E1,6.089818E0,1.5435555E0,3.30503E1,1.2628198E0,3.1787483E1],"tree_param":{"num_deleted":"0","num_feature":"7","num_nodes":"9","size_leaf_vector":"1"}},{"base_weights":[-2.4312006E-2,-1.468455E-1,2.6945242E-1,5.525374E-1,-1.4052387E-1,6.3937336E-1,-1.0963165E-1,1.9810091E-1,2.579649E-2],"categories":[],"categories_nodes":[],"categories_segments":[],"categories_sizes":[],"default_left":[0,0,0,0,0,0,0,0,0],"id":99,"left_children":[1,-1,3,5,-1,7,-1,-1,-1],"loss_changes":[1.0149368E1,0E0,9.77881E0,2.8959312E0,0E0,3.0139542E-1,0E0,0E0,0E0],"parents":[2147483647,0,0,2,2,3,3,5,5],"right_children":[2,-1,4,6,-1,8,-1,-1,-1],"split_conditions":[6E1,-1.468455E-1,2.6E1,7.51464E1,-1.4052387E-1,1.09101326E2,-1.0963165E-1,1.9810091E-1,2.579649E-2],"split_indices":[0,0,2,4,0,6,0,0,0],"split_type":[0,0,0,0,0,0,0,0,0],"sum_hessian":[7.230686E1,2.773017E1,4.457669E1,3.239817E1,1.217852E1,2.9875587E1,2.5225847E0,2.8598951E1,1.2766348E0],"tree_param":{"num_deleted":"0","num_feature":"7","num_nodes":"9","size_leaf_vector":"1"}},{"base_weights":[-1.3049507E-2,4.0556502E-1,-1.4782065E-1,-1.3976094E-1,5.8123875E-1,-1.0992607E-1,2.0124128E-1],"categories":[],"categories_nodes":[],"categories_segments":[],"categories_sizes":[],"default_left":[0,0,0,0,0,0,0],"id":100,"left_children":[1,3,-1,-1,5,-1,-1],"loss_changes":[1.5322561E1,6.5112824E0,0E0,0E0,3.1630373E0,0E0,0E0],"parents":[2147483647,0,0,1,1,4,4],"right_children":[2,4,-1,-1,6,-1,-1],"split_conditions":[5.5187923E1,2.5E1,-1.4782065E-1,-1.3976094E-1,2.710711E1,-1.0992607E-1,2.0124128E-1],"split_indices":[4,2,0,0,3,0,0],"split_type":[0,0,0,0,0,0,0],"sum_hessian":[7.4311066E1,3.9764084E1,3.454698E1,6.394092E0,3.336999E1,2.614618E0,3.0755373E1],"tree_param":{"num_deleted":"0","num_feature":"7","num_nodes":"7","size_leaf_vector":"1"}},{"base_weights":[7.7640615E-2,4.118997E-1,-1.4699654E-1,6.3221675E-1,-1.382044E-1,7.171561E-1,-1.12702705E-1,-9.3889914E-2,7.6089925E-1,2.3253748E-1,7.4431315E-2],"categories":[],"categories_nodes":[],"categories_segments":[],"categories_sizes":[],"default_left":[0,0,0,0,0,0,0,0,0,0,0],"id":101,"left_children":[1,3,-1,5,-1,7,-1,-1,9,-1,-1],"loss_changes":[1.5289462E1,1.0017116E1,0E0,3.7634926E0,0E0,1.9497948E0,0E0,0E0,7.5624466E-2,0E0,0E0],"parents":[2147483647,0,0,1,1,3,3,5,5,8,8],"right_children":[2,4,-1,6,-1,8,-1,-1,10,-1,-1],"split_conditions":[6.506602E1,7.462069E1,-1.4699654E-1,6.1E1,-1.382044E-1,2.355882E1,-1.12702705E-1,-9.3889914E-2,6.37385E1,2.3253748E-1,7.4431315E-2],"split_indices":[4,6,0,1,0,3,0,0,4,0,0],"split_type":[0,0,0,0,0,0,0,0,0,0,0],"sum_hessian":[7.851945E1,4.959113E1,2.8928322E1,3.9814E1,9.777131E0,3.698553E1,2.828467E0,1.2558753E0,3.5729656E1,3.426746E1,1.4621971E0],"tree_param":{"num_deleted":"0","num_feature":"7","num_nodes":"11","size_leaf_vector":"1"}},{"base_weights":[-3.414813E-2,3.8421062E-1,-1.478434E-1,-1.264709E-1,5.0103456E-1,5.760823E-1,-1.0724894E-1,-9.707423E-2,1.9156452E-1],"categories":[],"categories_nodes":[],"categories_segments":[],"categories_sizes":[],"default_left":[0,0,0,0,0,0,0,0,0],"id":102,"left_children":[1,3,-1,-1,5,7,-1,-1,-1],"loss_changes":[1.4261769E1,3.8745418E0,0E0,0E0,2.425272E0,2.0082912E0,0E0,0E0,0E0],"parents":[2147483647,0,0,1,1,4,4,5,5],"right_children":[2,4,-1,-1,6,8,-1,-1,-1],"split_conditions":[6.0745834E1,2.693142E1,-1.478434E-1,-1.264709E-1,2.6E1,6.971184E1,-1.0724894E-1,-9.707423E-2,1.9156452E-1],"split_indices":[6,3,0,0,2,4,0,0,0],"split_type":[0,0,0,0,0,0,0,0,0],"sum_hessian":[7.233753E1,3.7915833E1,3.44217E1,4.470749E0,3.3445084E1,3.1059072E1,2.3860097E0,1.7451131E0,2.931396E1],"tree_param":{"num_deleted":"0","num_feature":"7","num_nodes":"9","size_leaf_vector":"1"}},{"base_weights":[-2.4917617E-2,6.0467184E-1,-1.4854921E-1,-9.521311E-2,1.9341701E-1],"categories":[],"categories_nodes":[],"categories_segments":[],"categories_sizes":[],"default_left":[0,0,0,0,0],"id":103,"left_children":[1,3,-1,-1,-1],"loss_changes":[2.2119408E1,1.3849497E0,0E0,0E0,0E0],"parents":[2147483647,0,0,1,1],"right_children":[2,4,-1,-1,-1],"split_conditions":[3.2678917E1,4.1E1,-1.4854921E-1,-9.521311E-2,1.9341701E-1],"split_indices":[6,0,0,0,0],"split_type":[0,0,0,0,0],"sum_hessian":[7.270073E1,3.0961739E1,4.1738987E1,1.0006642E0,2.9961075E1],"tree_param":{"num_deleted":"0","num_feature":"7","num_nodes":"5","size_leaf_vector":"1"}},{"base_weights":[-5.2832E-3,6.098575E-1,-1.4840744E-1,2.0398492E-1,-1.0084392E-1],"categories":[],"categories_nodes":[],"categories_segments":[],"categories_sizes":[],"default_left":[0,0,0,0,0],"id":104,"left_children":[1,3,-1,-1,-1],"loss_changes":[2.2283888E1,2.403489E0,0E0,0E0,0E0],"parents":[2147483647,0,0,1,1],"right_children":[2,4,-1,-1,-1],"split_conditions":[1.6E1,3.1E1,-1.4840744E-1,2.0398492E-1,-1.0084392E-1],"split_indices":[2,1,0,0,0],"split_type":[0,0,0,0,0],"sum_hessian":[7.201722E1,3.180065E1,4.021657E1,2.9868822E1,1.9318277E0],"tree_param":{"num_deleted":"0","num_feature":"7","num_nodes":"5","size_leaf_vector":"1"}},{"base_weights":[2.2026217E-2,-1.4770655E-1,4.4205236E-1,-1.3287644E-1,6.29411E-1,2.0919555E-1,-1.0087858E-1],"categories":[],"categories_nodes":[],"categories_segments":[],"categories_sizes":[],"default_left":[0,0,0,0,0,0,0],"id":105,"left_children":[1,-1,3,-1,5,-1,-1],"loss_changes":[1.6480553E1,0E0,7.2366657E0,0E0,2.5325937E0,0E0,0E0],"parents":[2147483647,0,0,2,2,4,4],"right_children":[2,-1,4,-1,6,-1,-1],"split_conditions":[9.002575E1,-1.4770655E-1,3.1E1,-1.3287644E-1,7.1E1,2.0919555E-1,-1.0087858E-1],"split_indices":[4,0,1,0,1,0,0],"split_type":[0,0,0,0,0,0,0],"sum_hessian":[7.4272545E1,3.3308895E1,4.0963646E1,6.918871E0,3.4044777E1,3.2067627E1,1.9771469E0],"tree_param":{"num_deleted":"0","num_feature":"7","num_nodes":"7","size_leaf_vector":"1"}},{"base_weights":[9.161134E-2,3.7791362E-1,-1.466638E-1,-1.4200373E-1,6.138259E-1,-1.2271805E-1,7.3344654E-1,-9.805641E-2,7.934957E-1,2.4282809E-1,7.1081154E-2],"categories":[],"categories_nodes":[],"categories_segments":[],"categories_sizes":[],"default_left":[0,0,0,0,0,0,0,0,0,0,0],"id":106,"left_children":[1,3,-1,-1,5,-1,7,-1,9,-1,-1],"loss_changes":[1.3579208E1,1.1243022E1,0E0,0E0,5.5784206E0,0E0,2.7412395E0,0E0,1.3790512E-1,0E0,0E0],"parents":[2147483647,0,0,1,1,4,4,6,6,8,8],"right_children":[2,4,-1,-1,6,-1,8,-1,10,-1,-1],"split_conditions":[6.971184E1,9.131256E1,-1.466638E-1,-1.4200373E-1,5.5E1,-1.2271805E-1,2.4938963E1,-9.805641E-2,4E1,2.4282809E-1,7.1081154E-2],"split_indices":[4,6,0,0,1,0,4,0,0,0,0],"split_type":[0,0,0,0,0,0,0,0,0,0,0],"sum_hessian":[7.959442E1,5.3538036E1,2.6056381E1,1.1399165E1,4.213887E1,4.1586075E0,3.7980263E1,1.7975439E0,3.618272E1,3.473413E1,1.4485879E0],"tree_param":{"num_deleted":"0","num_feature":"7","num_nodes":"11","size_leaf_vector":"1"}},{"base_weights":[-3.4194794E-2,3.4514785E-1,-1.4756842E-1,5.5478925E-1,-1.3496956E-1,-9.853526E-2,6.1910266E-1,1.3320658E-2,1.9495139E-1],"categories":[],"categories_nodes":[],"categories_segments":[],"categories_sizes":[],"default_left":[0,0,0,0,0,0,0,0,0],"id":107,"left_children":[1,3,-1,5,-1,-1,7,-1,-1],"loss_changes":[1.2699348E1,6.9245257E0,0E0,2.0289745E0,0E0,0E0,5.064268E-1,0E0,0E0],"parents":[2147483647,0,0,1,1,3,3,6,6],"right_children":[2,4,-1,6,-1,-1,8,-1,-1],"split_conditions":[3.1E1,2.4982874E1,-1.4756842E-1,3.5E1,-1.3496956E-1,-9.853526E-2,1.0264889E2,1.3320658E-2,1.9495139E-1],"split_indices":[1,3,0,2,0,0,6,0,0],"split_type":[0,0,0,0,0,0,0,0,0],"sum_hessian":[7.116452E1,3.9047653E1,3.2116867E1,3.1138979E1,7.9086723E0,1.8347427E0,2.9304237E1,1.6117504E0,2.7692486E1],"tree_param":{"num_deleted":"0","num_feature":"7","num_nodes":"9","size_leaf_vector":"1"}},{"base_weights":[3.303543E-2,-1.482034E-1,5.52606E-1,-1.0437621E-1,6.134021E-1,-8.294619E-2,6.499053E-1,1.9908796E-1,5.0326254E-2],"categories":[],"categories_nodes":[],"categories_segments":[],"categories_sizes":[],"default_left":[0,0,0,0,0,0,0,0,0],"id":108,"left_children":[1,-1,3,-1,5,-1,7,-1,-1],"loss_changes":[2.1677265E1,0E0,2.3942251E0,0E0,1.4035482E0,0E0,1.3007832E-1,0E0,0E0],"parents":[2147483647,0,0,2,2,4,4,6,6],"right_children":[2,-1,4,-1,6,-1,8,-1,-1],"split_conditions":[1.8244824E2,-1.482034E-1,5.9E1,-1.0437621E-1,8.0031E1,-8.294619E-2,8.480084E1,1.9908796E-1,5.0326254E-2],"split_indices":[6,0,0,0,4,0,4,0,0],"split_type":[0,0,0,0,0,0,0,0,0],"sum_hessian":[7.7164E1,3.8330822E1,3.883318E1,2.1572182E0,3.667596E1,1.1861117E0,3.548985E1,3.4141846E1,1.3480033E0],"tree_param":{"num_deleted":"0","num_feature":"7","num_nodes":"9","size_leaf_vector":"1"}},{"base_weights":[-3.5638433E-2,3.958732E-1,-1.4785926E-1,-1.297813E-1,5.594759E-1,1.8996802E-1,-1.0246909E-1],"categories":[],"categories_nodes":[],"categories_segments":[],"categories_sizes":[],"default_left":[0,0,0,0,0,0,0],"id":109,"left_children":[1,3,-1,-1,5,-1,-1],"loss_changes":[1.4468352E1,5.361811E0,0E0,0E0,